500
..\..\new_features.txt
49
37
397
The_Training_Algorithm_is_HWO_MOLF_36
0.007791	-0.001690	0.002379	-0.003400	0.006125	-0.001353	0.010364	0.007063	-0.007840	0.007372	-0.002517	0.000782	0.007832	-0.005219	-0.000186	-0.000696	0.006277	-0.005926	-0.001703	-0.003541	-0.003245	0.004754	0.003649	-0.002313	-0.013916	-0.000878	-0.007592	0.009999	0.003812	-0.006520	0.001565	-0.000146	-0.002516	-0.004920	0.001042	-0.004320	-0.000369	
-0.006301	0.008064	0.000751	-0.006344	0.008676	0.000612	-0.009420	-0.003997	-0.001514	0.013566	-0.001941	-0.002762	0.001577	0.004266	-0.001484	-0.001782	0.007218	-0.004161	0.001697	0.002216	0.001209	0.006102	0.001375	0.009479	-0.002894	0.003458	-0.009443	-0.004357	0.000508	-0.005076	0.000805	-0.007595	0.003880	-0.011576	0.001137	0.000002	0.004049	
-0.005946	0.000237	0.002882	-0.003785	-0.001158	0.005582	-0.011902	-0.002150	0.007071	-0.003036	0.002379	0.004301	0.003518	0.012481	-0.000793	-0.003495	-0.012223	0.003606	-0.000364	-0.000411	0.001450	0.001604	0.004970	-0.013991	0.002840	-0.010801	0.001706	0.006218	0.000456	-0.000445	0.011599	-0.015571	-0.003709	0.005898	0.008208	-0.000603	0.003373	
0.011056	-0.000711	-0.000767	0.000599	0.002231	0.004320	-0.008471	0.008854	-0.004017	-0.015207	-0.003100	-0.005082	-0.002861	0.001542	-0.000200	0.000068	0.000642	0.005943	-0.000136	0.006566	0.001046	-0.004245	-0.000769	-0.008347	0.002554	-0.000172	-0.002802	0.003186	0.001508	-0.005079	0.012355	0.007134	-0.001574	-0.002846	-0.002466	0.002919	-0.003673	
0.001142	0.004878	-0.002680	0.002247	-0.002562	-0.009230	0.012909	0.003743	0.009700	0.003890	-0.011874	0.006029	-0.010190	-0.006711	-0.004104	0.002108	-0.008305	0.005692	0.000496	0.002217	-0.000613	0.001517	-0.002074	0.003263	0.000930	-0.001206	-0.008714	0.003047	-0.003286	0.000820	-0.002548	0.008374	0.001816	-0.005571	-0.001909	0.005165	0.001591	
0.014476	-0.002327	-0.014474	0.002826	0.010315	0.009065	0.001494	0.000673	0.004621	-0.001132	-0.001234	-0.000361	-0.002795	-0.010292	0.001043	0.003934	0.003920	-0.009269	0.001835	-0.004825	-0.001498	-0.004007	0.005573	-0.001442	-0.001938	-0.005569	0.007687	0.002053	0.001390	0.000525	-0.005396	-0.005147	-0.000152	0.001221	-0.001201	0.002839	-0.002429	
-0.008155	0.000073	0.007754	0.003646	0.001953	-0.003033	0.006841	-0.002049	-0.006829	0.002800	0.003795	0.006663	0.002778	0.000711	0.000746	-0.007720	0.006263	0.003711	-0.002322	-0.003461	0.001030	0.004585	-0.006551	-0.002492	0.007683	-0.002681	0.000412	-0.000347	0.003016	0.001397	0.000967	-0.009401	0.003263	-0.001740	-0.002301	-0.004017	-0.006991	
0.009711	0.002364	-0.003425	-0.013162	0.007457	-0.004941	-0.004439	-0.006724	0.010508	0.001386	-0.004929	-0.007189	0.002038	0.003033	0.001654	0.000784	0.014769	0.003600	-0.003138	-0.000410	0.001105	-0.002495	-0.014841	0.004159	-0.001577	-0.001591	-0.000933	0.002614	0.000044	-0.005057	-0.008101	0.003643	0.007836	0.002628	-0.001109	0.003797	0.000931	
-0.015665	-0.003219	-0.005784	0.001958	0.006459	0.004832	0.002781	-0.004537	-0.010980	0.001386	-0.004861	0.008536	0.000707	0.009873	-0.000220	-0.002339	-0.009287	-0.003922	-0.000746	-0.000588	-0.004368	0.001952	0.009685	-0.005022	-0.000373	-0.007898	0.002535	0.004414	-0.000895	0.007645	0.011124	0.005214	-0.002459	-0.000367	0.001466	-0.001343	0.004307	
0.013483	0.001397	0.001939	0.001730	0.000145	0.007777	0.004759	0.003311	-0.001071	0.005074	0.004946	0.003299	0.001712	0.000135	-0.000200	-0.007749	0.003491	-0.003390	-0.001398	-0.001876	-0.000263	0.001813	-0.005910	-0.004975	-0.004565	-0.002936	-0.006974	-0.005290	0.002612	-0.003597	-0.000295	0.000301	-0.008081	-0.000102	0.002480	-0.000361	-0.001370	
0.001672	-0.002315	-0.005228	0.003328	-0.000525	-0.000831	-0.014405	-0.008232	-0.003028	-0.000391	-0.008199	0.003189	0.008557	0.006366	0.005147	-0.007047	0.009172	0.002089	0.001038	0.002109	-0.002493	0.004440	-0.002257	-0.003863	-0.004279	-0.005691	-0.002901	-0.003220	0.006422	-0.004648	0.005678	0.007367	0.006938	0.002704	-0.001235	0.004501	0.000073	
0.004335	-0.002538	0.001333	-0.001880	0.000553	-0.001251	0.005355	-0.000470	0.010607	0.002298	0.000054	0.000471	0.001772	-0.025165	-0.001576	-0.007100	-0.005362	-0.000049	0.002174	-0.004801	0.000614	0.002276	0.001289	0.004115	-0.006638	0.007447	0.010090	0.003819	0.001867	0.002367	-0.001792	-0.002517	-0.003180	-0.001920	0.005580	-0.002890	0.000711	
0.001053	0.006601	-0.013941	0.000302	-0.001919	0.002535	0.015853	-0.005916	-0.000604	0.003330	-0.004286	0.000426	-0.004077	-0.007406	-0.002080	-0.000501	-0.000015	0.007055	-0.000283	-0.002163	-0.001967	0.003894	0.008838	-0.012306	0.000231	0.003328	0.001615	-0.001520	-0.002962	-0.008485	0.003214	0.008012	0.003173	0.000321	-0.000591	0.002775	-0.001534	
0.008853	-0.000075	0.000989	-0.000555	0.000207	0.004825	0.003892	0.005199	-0.011100	0.000478	-0.000885	-0.003324	-0.003615	-0.002627	0.001393	0.000299	0.001077	0.000889	0.000830	-0.001294	0.002789	-0.001140	0.000222	-0.010227	0.002707	-0.000395	-0.007550	0.002743	-0.000810	-0.010321	0.013842	0.003376	-0.001335	-0.000140	0.000126	-0.002823	0.003479	
0.006341	0.004482	-0.006507	-0.000274	0.002910	0.002708	0.002171	0.003995	-0.000707	0.002950	-0.005131	-0.003705	0.003759	0.004529	-0.002857	0.004139	0.000771	0.001363	-0.000857	0.001373	-0.001312	-0.003236	0.001355	0.000546	-0.004691	0.003874	-0.011213	-0.008480	0.002840	0.000859	-0.007653	-0.010772	0.003130	0.010703	-0.001106	0.002343	0.001363	
0.005826	-0.005107	0.007538	-0.003270	-0.005377	0.001118	0.002396	0.002078	0.004532	-0.005463	0.004037	0.001129	0.000345	0.007067	0.000928	0.002712	0.003325	-0.002395	-0.000610	0.001643	-0.005006	-0.001180	0.000968	-0.003095	-0.003125	-0.004918	0.004585	0.003574	0.001584	-0.004865	-0.000088	-0.000948	-0.000697	-0.008471	-0.001261	0.000612	-0.000118	
0.007866	0.005609	0.004089	-0.006546	-0.008776	0.001748	0.002135	0.001478	-0.005256	-0.015175	-0.007595	0.006355	0.005122	-0.017002	-0.001821	-0.003532	0.001178	0.001594	-0.000151	0.000732	0.005136	-0.001211	-0.006598	0.003139	0.000208	0.004834	0.001457	0.001538	0.003847	-0.006426	0.006524	0.009212	-0.000914	0.001405	0.001932	0.000158	0.003706	
0.003517	-0.002463	-0.002195	0.004178	0.005963	0.005443	0.000121	-0.000071	0.005692	-0.007260	0.002371	-0.017110	-0.008824	0.015512	0.005573	-0.001656	-0.002484	0.001979	-0.001925	-0.000959	-0.003061	0.001174	-0.002899	0.005309	0.007004	0.000536	-0.000513	0.002638	0.002875	-0.004705	-0.003098	-0.011024	-0.003909	0.009493	0.000542	-0.002252	-0.003512	
-0.007549	-0.003127	0.007019	0.000236	0.001892	-0.004326	-0.001034	0.004595	0.002381	0.000945	-0.001004	0.003736	-0.002874	-0.001041	-0.001827	0.001776	0.003232	0.014123	0.000139	-0.001821	-0.000772	-0.000769	-0.002485	-0.006983	0.000547	0.001413	-0.005216	-0.005445	-0.001288	0.001789	-0.004402	0.003207	0.004680	0.004131	-0.001130	-0.005523	0.002774	
0.000710	-0.002269	-0.003219	-0.009583	0.006995	0.000230	0.000730	-0.001455	0.005105	-0.011303	0.000380	-0.000896	0.006744	-0.009084	-0.006690	0.001771	-0.003085	0.003727	0.001460	0.005200	-0.000384	-0.004171	0.003755	0.004906	0.013988	-0.010055	-0.000036	0.000405	-0.000070	0.001347	0.002156	-0.000161	-0.001935	0.004318	-0.000167	0.000304	0.000333	
0.003454	0.001690	0.003691	0.003581	0.004718	0.004052	-0.006774	-0.013468	-0.010307	0.005520	0.000322	0.001965	0.003184	-0.000659	0.000152	-0.000727	0.000097	-0.007784	-0.000783	0.001807	-0.001885	-0.000309	0.004329	0.011847	-0.002356	-0.000165	0.003758	0.007554	-0.001290	0.011023	-0.002876	0.002037	-0.006154	-0.006707	0.000056	-0.007980	-0.004615	
0.009669	-0.005355	0.004175	-0.005295	-0.003933	0.005657	-0.002952	0.002316	-0.011477	0.001683	0.006225	-0.000860	0.002309	-0.001580	-0.001705	-0.002620	0.001791	0.001700	0.000806	-0.001640	0.002911	0.000576	-0.008935	0.004724	0.002846	-0.001374	0.000746	0.002076	0.000085	-0.003031	0.002731	0.004076	-0.000269	-0.002643	0.001626	-0.002835	-0.002223	
0.009024	-0.003000	0.000037	0.006928	-0.005206	-0.006459	0.007437	-0.004554	-0.005819	0.003788	-0.002981	0.001011	0.000597	0.004028	-0.001202	0.002215	0.000776	-0.009082	-0.000400	0.001298	0.000489	0.001062	0.008574	0.007371	-0.001575	-0.003352	-0.003898	0.000760	-0.000184	0.001969	-0.001845	-0.002897	0.002366	-0.001735	-0.002740	-0.001588	-0.001213	
-0.002328	-0.003416	-0.003957	0.006165	0.006107	0.004218	-0.004797	0.000146	0.005274	-0.000748	0.006706	0.011609	-0.010739	-0.009349	0.001770	-0.000517	0.001336	-0.007554	0.000240	-0.002845	-0.001754	-0.002367	-0.012349	0.007371	0.004249	-0.001553	0.008511	-0.003762	0.009026	0.000865	-0.002376	-0.003733	0.001849	0.001178	-0.002228	-0.000307	0.000061	
0.001873	-0.000968	0.017474	0.006647	-0.002955	-0.006081	0.003706	0.006568	-0.007974	0.000226	-0.000961	-0.007299	0.000348	0.001313	-0.005377	-0.000603	-0.002102	-0.001336	0.001721	0.004165	0.000695	0.002804	0.004458	0.003255	0.003127	-0.002522	-0.007156	0.006137	-0.003958	-0.011908	0.002362	-0.001897	0.004394	-0.003456	-0.002772	0.002888	-0.004836	
0.005981	-0.003011	-0.005215	-0.003403	-0.000435	-0.003882	-0.008030	-0.007100	-0.006660	0.003926	0.001594	0.011282	0.005473	0.000176	0.001334	0.002958	-0.003195	-0.009559	0.000599	-0.000087	-0.003201	0.001767	0.009484	-0.005338	-0.005447	0.005015	0.000903	0.005994	-0.003680	0.012095	0.002537	-0.004106	0.001641	-0.002112	0.001558	-0.001843	0.001987	
-0.003057	0.000569	0.006127	-0.000997	-0.000257	-0.001731	-0.000774	0.005186	0.002593	0.003916	0.002764	0.004955	-0.003504	-0.001298	0.001201	-0.001686	-0.001028	-0.002357	-0.000040	-0.000191	0.000518	0.001592	0.002596	0.001758	0.002872	-0.002122	-0.007075	-0.003072	0.001803	-0.000773	-0.004769	-0.005585	0.004251	-0.006270	0.002484	-0.000602	0.002003	
0.005036	-0.003477	0.002630	0.005323	0.000781	0.003581	0.003749	-0.004488	-0.004875	-0.010078	-0.001816	0.000129	0.001975	0.011823	0.000973	0.001332	-0.009952	0.000823	-0.000977	-0.001922	0.001181	0.000227	0.004507	-0.005119	-0.004254	-0.004066	0.000130	0.002548	0.000744	0.001914	0.011433	-0.006298	-0.000964	-0.006784	0.000214	-0.000149	0.004165	
0.011361	0.010456	-0.015935	0.004202	-0.002765	-0.002522	-0.006995	0.003267	-0.005702	0.000580	0.004548	-0.004943	0.006839	0.000447	-0.000748	0.002367	-0.001409	0.004226	-0.001179	-0.003011	0.005544	-0.000766	-0.002414	-0.006492	0.004508	-0.003430	-0.005444	0.000963	0.003173	-0.001924	0.000360	-0.004928	0.001785	0.006180	-0.000644	0.001818	-0.001375	
0.006014	-0.010611	0.004536	-0.000433	-0.007812	0.000679	0.001120	0.007096	-0.004641	0.007788	0.000239	0.001790	0.006012	-0.000684	0.005637	0.000719	-0.001185	-0.004811	-0.000063	0.005064	-0.003199	0.001236	-0.008912	0.000780	-0.004708	-0.004245	-0.010366	-0.002841	-0.002533	-0.004636	0.011174	0.011787	-0.002239	0.002896	0.002839	-0.000813	-0.002675	
0.004706	0.001043	-0.003882	-0.012262	-0.002662	-0.004818	-0.012293	-0.001798	-0.001469	0.001330	0.002685	-0.002336	0.001784	-0.006512	-0.001472	0.003045	0.010299	0.000344	0.000497	0.004244	0.005818	-0.001209	0.007476	-0.001965	-0.003229	-0.001111	0.004073	0.002385	-0.000684	-0.004754	0.006001	-0.000285	0.002668	0.005628	-0.000537	0.001079	-0.001829	
-0.009276	-0.004415	-0.018882	0.001190	0.004295	0.007043	0.031240	0.005184	-0.000053	-0.013678	0.009524	0.009414	-0.010386	-0.006383	-0.000762	-0.004345	-0.005110	-0.001924	0.000074	-0.000483	-0.001918	-0.001821	0.007525	-0.001775	0.003134	0.000157	0.002909	-0.004551	-0.004988	-0.003269	0.001116	0.004459	0.000975	0.002274	0.000430	0.001665	0.001410	
-0.012982	-0.003614	-0.005485	0.001974	-0.001516	-0.000254	-0.007276	-0.004560	0.005561	0.003494	-0.006188	-0.002292	0.006986	0.003218	0.001911	0.004775	0.014388	0.005917	0.002066	-0.001471	-0.009357	-0.004567	0.001345	-0.003148	-0.003285	-0.000694	0.000143	-0.002456	0.004327	0.008551	0.001569	0.000053	-0.004800	0.001256	-0.001043	0.003800	0.003654	
-0.001438	-0.009808	-0.001559	-0.000187	0.006757	-0.010747	0.004813	0.004827	-0.003224	0.004411	-0.013171	-0.004538	0.000444	-0.015738	0.002606	0.001440	0.001417	0.005376	-0.000626	-0.001699	-0.000410	-0.002101	0.014115	0.005759	0.009494	-0.007390	0.006144	-0.000407	0.002151	0.000697	-0.005906	0.001467	0.001293	0.006128	0.003324	-0.000379	-0.003337	
0.007284	0.004389	-0.000903	0.006048	-0.002686	0.005920	0.006098	0.004101	-0.007612	0.002899	0.000608	0.013887	0.007625	-0.008577	-0.000037	-0.000273	0.004759	-0.008336	0.001041	-0.009774	0.002029	0.001394	0.003427	-0.005774	0.003742	-0.004289	0.000630	-0.000333	-0.003614	-0.002276	-0.007022	-0.008090	0.000763	-0.001913	-0.003825	0.003288	-0.004597	
0.006703	0.002332	-0.010381	-0.001379	0.000882	-0.007329	-0.001566	0.000157	0.003306	0.001045	0.000197	-0.002951	0.010112	0.001983	0.001314	-0.002988	0.009210	-0.011938	0.000590	-0.001276	-0.001980	-0.004305	0.007692	-0.008319	-0.000004	-0.002327	0.009276	0.002075	-0.000356	-0.006373	-0.007482	0.001934	0.008970	0.002178	-0.002983	0.007484	-0.003503	
-0.009701	-0.002113	0.005029	-0.002001	0.006126	0.004833	0.006452	-0.001201	-0.014251	0.002460	0.000682	0.001444	-0.008643	-0.003226	-0.003409	0.003403	-0.007391	-0.004296	-0.001321	0.007802	0.003416	-0.003175	0.000192	-0.003222	0.007391	-0.001018	-0.003152	-0.001230	0.005080	-0.003836	0.006637	0.009263	0.006540	0.000686	0.001051	-0.003895	-0.001407	
-0.004727	0.002221	0.005385	0.001524	0.000798	0.003274	-0.006532	0.006319	-0.010037	-0.004514	0.007220	0.005660	0.008015	0.011401	-0.002603	0.001508	0.004183	0.002959	-0.002337	0.001049	-0.007062	0.000374	-0.010118	0.004974	-0.002327	-0.003413	-0.000932	0.004626	-0.003450	-0.001074	-0.000637	-0.007618	-0.004320	0.001891	-0.000569	0.003770	-0.004883	
-0.000106	-0.001542	0.005736	0.004511	0.007046	0.000417	0.012214	-0.005353	-0.008488	-0.008255	-0.005245	-0.007601	-0.010484	0.007409	0.002693	-0.004896	0.002995	-0.001444	-0.001437	0.003932	0.007516	0.000664	0.003877	0.002286	0.002096	0.005632	-0.003594	-0.005577	-0.001009	-0.005374	-0.007021	0.003386	0.001439	0.002816	0.004155	-0.003476	0.000080	
-0.006083	-0.006086	0.007617	0.006892	-0.002229	0.005353	0.000836	-0.003796	0.000143	0.003200	0.006516	-0.002021	0.001350	0.002274	-0.000123	-0.000030	-0.001408	0.003055	-0.001011	-0.004378	0.000215	-0.000443	-0.000502	-0.011848	-0.002497	0.007144	0.001230	0.008031	-0.003786	0.000285	0.001826	-0.011202	-0.003360	0.008170	-0.000269	-0.000134	-0.002932	
-0.000924	-0.000144	-0.007851	0.000743	-0.000321	-0.000148	0.002704	0.000179	-0.001689	0.002936	0.007646	-0.010207	-0.007501	0.011179	-0.003345	-0.000434	-0.000332	-0.009859	0.000481	0.002243	-0.002522	-0.000161	0.005044	0.008562	0.004226	-0.000950	0.002958	-0.003913	-0.002268	0.005310	-0.002872	0.001216	-0.000164	0.002177	-0.002215	0.000119	0.000096	
0.004474	-0.001970	-0.000235	0.001088	0.003592	0.008289	-0.013262	-0.001924	0.007294	-0.000175	0.003193	0.012479	0.001623	-0.017968	-0.007982	0.003066	-0.005430	-0.002355	-0.000867	-0.001844	0.001242	0.003688	0.003974	0.009919	0.003684	-0.006772	-0.004440	0.004230	0.008778	-0.005366	-0.006019	-0.003425	-0.003033	-0.001112	0.004344	-0.001663	0.000887	
-0.007310	0.000828	0.005905	-0.001939	-0.001821	-0.000173	-0.002961	0.001991	0.001135	0.002277	-0.000152	0.011663	0.001753	-0.002909	0.000699	-0.002904	0.000175	0.002860	-0.000089	-0.000575	-0.000949	-0.001927	0.000536	-0.002846	0.002240	-0.003614	0.002226	-0.000658	0.000259	-0.002439	0.000420	-0.000600	-0.001001	0.000193	-0.000250	-0.002990	0.002946	
0.000909	-0.000895	-0.000894	0.001811	0.006621	-0.013400	0.002119	0.002728	-0.005196	0.001316	0.001859	-0.004220	-0.005632	-0.001767	0.002331	0.002483	0.002759	0.001696	0.001144	-0.001947	0.001037	-0.001533	-0.003192	0.000723	-0.000117	0.001336	0.001090	0.001925	-0.001062	0.011923	-0.001221	0.002365	-0.004121	-0.004854	0.002628	0.001343	-0.002097	
0.002890	0.004362	0.006668	-0.002637	-0.007777	-0.003537	0.001137	0.000416	0.004831	-0.001251	0.007474	-0.001193	-0.002086	0.006779	0.003984	-0.002087	0.002080	0.004497	0.001261	0.004496	-0.003334	0.005140	0.000631	-0.012133	0.000897	0.003089	0.003194	-0.015218	-0.002301	0.009177	0.003368	-0.009856	-0.001354	-0.007263	-0.004576	0.002178	-0.001946	
0.008860	-0.001150	0.001528	-0.002317	0.003448	0.007000	-0.001397	0.006940	-0.008162	0.001261	0.001476	-0.004639	0.004213	0.003805	-0.001047	-0.005651	0.004295	0.003628	-0.001278	-0.001429	0.003010	-0.001211	-0.003650	-0.004419	-0.000812	-0.001101	0.002714	-0.009967	0.001387	-0.001456	-0.000589	-0.000197	0.003534	-0.001007	0.001363	-0.006068	-0.000915	
0.003599	0.006511	-0.002362	0.001025	0.000521	-0.005191	0.003654	0.004770	0.005257	-0.007575	-0.000413	0.003038	-0.005860	0.001224	0.002378	-0.006676	-0.000703	0.007949	-0.000176	0.001827	-0.001399	0.003270	-0.006435	0.001627	0.000629	-0.001806	0.003576	-0.003439	0.000849	-0.001677	0.001921	-0.008755	0.001853	-0.001679	-0.000408	0.001177	-0.002097	
0.006542	0.003498	-0.003476	0.001479	0.007647	0.000618	-0.008289	0.004071	0.002120	-0.002724	-0.001355	-0.001641	-0.003903	0.009802	0.000298	0.003267	0.006220	-0.000685	-0.001167	-0.001551	0.005007	-0.002287	-0.003429	-0.008804	-0.003402	0.004030	-0.009453	0.007879	-0.000786	-0.007033	0.004124	-0.003610	-0.002985	0.003781	0.003921	-0.001907	-0.005816	
0.005356	0.007327	0.002880	-0.004374	0.000600	-0.002966	-0.004416	-0.001376	-0.004829	-0.001422	0.006139	-0.002961	0.005290	-0.003550	0.000531	-0.003000	0.006166	0.000777	-0.000803	0.000416	0.001443	0.001718	-0.004277	-0.007588	0.007379	0.004658	-0.004861	-0.007321	-0.001928	0.004403	0.006735	0.004847	-0.003832	-0.000177	0.001802	-0.004963	-0.003823	
0.975910	2.267849	-14.183009	4.869899	-2.672082	0.223810	2.217470	-0.340620	13.079653	-7.058741	2.742628	0.060184	-4.932703	2.938311	2.260077	7.280477	2.615081	8.068326	0.318317	2.505917	1.362777	3.234119	-1.786714	-4.880800	-2.640107	1.342531	1.083102	1.611212	2.167880	-6.336109	-8.074645	1.238069	-1.673330	-3.353548	0.206167	-2.233747	-3.503610	
-5.589341	0.867209	3.444151	1.196392	1.963196	1.243578	1.102244	-0.537250	-5.661558	-0.864012	-0.330081	-2.925656	0.293380	-0.376791	-0.710031	0.518633	1.800441	2.107359	-1.061476	0.671172	3.474872	-0.523400	-0.526933	1.046008	-1.382432	3.864766	-0.512032	0.175485	-0.689927	0.015188	2.208364	-1.206799	-1.569106	-0.598570	-0.691554	-0.554283	0.318795	
2.793639	-0.211347	-0.200489	0.087420	0.148965	0.064617	0.848181	0.161683	0.020365	-0.066366	-0.243698	1.453693	0.007726	-3.052502	-0.127437	-0.189914	0.429361	-0.057546	0.049754	0.035383	-0.023912	0.285560	0.211031	-0.548304	-0.313950	0.008971	-0.720102	-0.036662	-0.397324	-0.025249	-0.281781	0.304356	-0.120696	-0.062036	0.214584	-0.330512	-0.115461	
-0.007247	0.394837	-0.517187	-0.610698	-2.862328	-0.774311	1.259807	0.115196	-0.198820	-0.746195	0.804201	-1.800649	2.028156	-2.304432	0.963085	-0.483252	2.526735	0.422532	0.194861	-0.899473	-1.618364	0.296189	1.029453	0.569189	2.715574	0.514680	-0.705713	-1.462868	0.074472	-2.087024	-0.114650	0.615850	1.001658	-0.330897	0.350143	0.101112	1.546376	
1.461495	-0.717932	-0.359706	-0.332022	-0.366386	0.112830	-0.447475	0.464665	-1.554055	0.357630	-0.306408	0.076950	-0.864690	1.690109	0.025967	-0.087156	0.617747	0.634258	0.062381	-0.144059	0.314752	-0.158372	-0.127347	-0.985729	-0.070785	0.077252	0.233538	-0.136811	0.350392	0.291692	-0.105976	-0.455887	-0.062863	0.478238	0.011936	0.126341	-0.104514	
-1.992786	-0.585663	-0.533008	1.308219	-1.299390	1.829269	2.162006	0.552163	1.096965	-3.052683	-2.158842	4.969577	-0.740696	-4.259287	0.819238	0.676451	1.889811	-1.710482	0.728549	0.308234	1.915281	-2.452270	0.125534	0.171796	-0.296915	-0.454488	1.787079	1.870473	0.157647	0.328357	1.099656	-0.530421	-0.452713	-1.506613	1.251057	-0.438615	-2.582492	
-0.949986	-2.219118	0.421861	2.812010	2.307516	0.862943	2.310493	1.893948	-0.908333	-0.537706	-0.357302	-0.310079	-0.416671	1.128128	-0.225960	-0.482061	-0.185797	0.019950	0.230584	0.187336	-1.001057	0.514116	0.511161	-1.079785	0.146431	0.042812	-1.275116	-0.071636	-0.439924	-0.115897	-1.361515	0.031593	-0.409645	-0.831493	-1.041706	0.785189	0.014714	
0.396928	0.804714	-0.126164	-0.819777	0.060379	-0.054483	-2.594268	-2.927811	1.533077	-0.747099	1.389996	4.063561	1.467731	-1.385822	-1.004658	0.317910	-0.427190	-1.050348	0.222878	-0.032812	-1.065045	-0.624429	-3.723730	0.397496	0.573135	0.001997	-0.240886	2.584457	0.022278	-1.202121	1.973864	-1.147640	1.090235	-0.221125	0.937682	0.195910	1.361183	
1.689150	0.815636	0.976700	-2.244765	-1.031515	0.754733	1.641907	0.139554	0.689191	-1.041538	0.231299	-0.450450	-2.377507	0.006816	-0.571557	-0.009765	0.408075	1.537784	-0.063058	-0.135573	0.862379	-0.532833	-1.576530	0.793074	0.969828	0.684771	1.136750	-0.747804	-0.354887	-0.161387	-1.226561	-0.179182	-0.031769	-0.664977	-0.023036	0.306883	-0.219835	
1.820321	0.296215	0.534932	0.232418	0.893262	-1.031850	1.859983	0.154956	-2.249664	1.902739	-0.201041	-0.925838	-0.376643	1.106584	-0.277194	-0.069047	-0.378894	0.773259	0.289152	0.085602	0.862836	0.046045	-2.122823	-0.156105	0.488572	-0.512124	-0.518751	0.339266	0.054847	-0.939216	0.840982	-1.211699	0.205406	-0.811246	-0.293909	-0.471469	-0.239866	
0.263519	0.818195	-0.706987	1.572016	-1.374262	0.233483	2.247199	0.155520	0.005082	-0.350160	1.935255	0.613404	-1.564873	0.721553	0.681529	1.047550	1.465422	0.005623	0.371989	0.139124	0.140048	-0.665981	-1.293206	-0.769921	1.060432	-1.727412	-1.663774	-2.317543	-0.575999	0.181896	2.270332	-2.704398	-0.884758	-1.430500	-0.281364	0.446334	1.935631	
0.439109	-1.283696	-0.568767	-1.085473	2.853571	-4.829012	0.826397	-1.157245	1.328933	4.698266	1.902513	0.688568	-0.229320	-4.534378	-0.819860	0.377693	0.026643	-2.451744	0.773117	-1.224619	-4.396402	0.062882	5.174414	-0.971429	3.119357	0.509939	-0.025805	-0.869394	0.486691	2.539739	0.199455	-0.291030	0.696224	-2.311149	-0.222795	0.379660	0.188945	
-0.404319	-0.446367	0.564784	0.258420	-0.859359	0.681402	-1.077783	-1.313018	-0.707039	0.051692	-0.472447	0.889138	-0.369963	-2.604797	-0.492865	-0.119891	1.486640	0.607096	0.197314	0.104412	0.523483	0.255988	0.798687	0.699136	0.331194	0.133053	1.161906	0.376350	0.492670	0.119438	-0.699835	0.086469	-0.136509	0.901186	-0.320040	-0.094678	-0.601545	
0.057949	0.280272	0.223517	-0.354104	-0.101804	-0.359125	-0.352642	0.145116	-1.878263	0.361015	-0.762959	-0.032970	0.740184	2.324553	0.438155	-0.231495	-0.833486	0.333475	-0.149622	-0.290528	0.230159	0.315789	0.068242	-1.344328	1.074465	-2.157221	0.383263	-0.116607	0.191100	-0.606102	1.155184	1.430389	-0.340228	0.695391	0.136461	-0.320004	-0.353192	
1.089258	0.051692	0.598449	0.824684	-1.603641	-0.163947	0.392985	-0.530064	-0.421921	-2.255200	0.320467	0.486726	0.995006	0.820860	-0.904902	0.633553	-0.476891	1.048693	-0.067504	-0.219619	-0.836819	0.399848	-1.132734	0.424252	-0.160373	0.509540	1.029665	-0.187017	0.256657	-0.260141	0.586756	-0.907949	-0.056567	-0.787424	-0.140960	0.485355	0.159228	
6.682528	1.044462	-1.642769	-0.194496	1.320092	0.014035	3.386591	-1.135874	-1.318121	0.008120	-1.466802	1.408929	-2.227011	-2.873252	0.177171	0.621620	-2.086793	0.412251	0.240505	0.565693	-0.494801	0.342289	-0.888976	-2.468761	1.298621	0.417483	0.003080	-1.728871	0.001478	0.396063	-0.384492	0.881146	-0.956519	-1.361180	-0.531604	1.144338	1.393825	
1.502953	-1.022698	-1.022147	-1.926641	0.310214	0.209455	0.124282	-0.143377	0.955740	1.821389	-0.406770	1.239034	1.174386	-2.267569	-0.647680	0.532084	0.754486	-0.297235	-0.906212	-0.202226	0.364757	-0.422643	-2.353008	1.028523	-1.088730	0.921606	-0.255158	-1.112842	1.121713	2.295206	1.695304	-1.431876	-0.490305	-0.382822	0.706999	0.078847	-0.457037	
-4.069626	-0.778144	0.619618	-0.897112	-0.671028	-0.350687	2.020784	-1.744076	2.969423	1.567476	-1.435540	-1.703717	-0.871966	1.099292	0.440589	0.177726	-0.359802	2.438528	0.803504	-0.677320	-0.723775	-0.382233	2.766865	-2.768106	-0.644638	-0.520280	-0.690831	0.587257	-0.262209	0.901638	0.095976	1.301293	1.994436	0.146408	-0.734678	0.468111	-0.113154	
-1.194323	-0.101748	0.248510	-1.632336	-0.473753	0.041014	-2.014699	-0.596577	-0.935360	-0.587315	-0.785613	0.096204	0.502917	-1.332285	0.100392	-0.484620	1.265430	0.523431	-0.232131	-0.168593	-0.846124	-0.479313	1.244735	1.716682	0.225887	0.955716	1.263731	0.231882	0.452969	-1.194939	1.217311	-0.084174	2.572249	-0.034413	-0.004728	0.822368	-0.298382	
0.055028	0.753496	0.327103	3.744979	2.696895	-0.597909	3.811262	0.442943	-2.964989	-0.508222	-1.365410	-2.942975	-2.678601	3.786068	-0.351279	-1.586537	0.954084	-2.593361	0.060883	0.065723	1.103453	-0.894485	-0.723447	-0.527604	-1.028058	4.249492	1.866683	-0.493421	0.501630	1.235789	-2.625704	1.141990	-2.434482	-1.078259	-2.667590	1.811261	-0.546426	
-0.654251	-0.296074	1.082464	-0.431606	-0.270357	-0.858841	0.402149	-0.471527	-0.230326	1.598569	-0.532705	-0.350159	-1.888569	0.168065	0.318611	0.007575	0.642194	0.680576	-0.028385	0.096237	-0.134077	0.393120	-0.492120	1.115634	-0.029324	-0.363926	-0.256290	0.766126	-0.624872	0.191254	-0.162610	0.520737	-0.642346	0.745241	0.089586	0.051758	-0.151532	
-0.739967	1.473027	0.370386	0.679011	0.266384	0.873704	0.265476	0.203831	0.157843	0.027025	0.772869	-0.380829	-0.839807	-1.976867	0.096373	-0.347629	-0.577093	0.507053	-0.213551	-0.388119	-0.244050	-0.371800	-0.078353	0.615913	-0.326959	-0.717036	-1.002473	0.753836	0.149682	0.815742	0.738352	-1.587504	0.754744	-0.084213	0.108206	-0.139016	0.385810	
-1.576763	1.133150	0.119322	0.175296	0.342340	-0.998529	-0.343638	-2.129997	-0.090830	0.415336	-0.730690	-0.336181	-1.066194	-0.012345	-0.434697	0.496435	-1.093321	-0.134177	-0.168620	-0.607418	0.174470	-0.499920	0.344778	0.292917	1.153696	1.110186	-1.682039	-0.002660	-0.012808	-0.211955	0.113756	1.078584	1.133224	3.613289	-0.096510	0.236652	0.295860	
-0.666497	0.108566	-0.104368	-0.958776	0.471098	-0.509975	0.385959	-0.254039	0.805046	-0.487561	-0.183809	0.413650	0.234314	0.572479	0.074587	-0.379844	0.728131	-0.032329	-0.090076	0.317993	-0.164371	0.164037	-0.866783	0.179204	0.115414	0.415623	-0.212877	-0.301331	0.055261	0.057396	0.127289	-0.234712	-0.264157	0.002240	-0.079033	0.134484	0.427765	
0.208538	-0.337564	-1.853532	0.966724	-1.619822	-2.938383	3.220898	-0.578937	1.630253	0.937615	-1.430289	-0.264813	1.123602	-1.241136	0.277739	-0.778338	-0.233122	-1.108639	0.396526	1.400177	0.199100	0.174035	1.877514	0.439163	-1.327722	-1.752476	-0.398484	-1.108493	0.019148	-0.599158	2.837774	-0.048425	-0.220726	0.544655	-0.597271	0.513253	1.670615	
-2.210953	0.227495	-4.213286	2.108595	-1.040155	-4.006134	4.041919	-1.391803	-2.498136	1.472306	1.847731	-1.794010	1.127962	2.429561	0.224003	-0.491323	-1.996123	1.563920	-0.154338	-0.062754	-0.067491	0.204755	5.783845	-1.398408	2.396282	1.629208	-0.084952	0.355320	-0.203769	-0.207317	-2.046263	-0.536549	0.648244	-2.419590	0.366062	0.274768	0.121378	
-0.735438	-0.704304	0.889125	-0.250497	-0.353871	-0.570413	-0.972499	0.259446	-0.594748	0.538789	-0.536493	-0.730167	1.666515	0.974206	-0.479935	0.529156	-0.197077	-0.613414	0.270963	-0.093531	0.667245	0.206551	0.379097	0.538619	-0.865864	-0.252115	0.509485	0.369640	0.235927	0.818450	0.327554	-0.220436	0.161316	-0.265043	-1.124020	0.061235	0.156547	
1.358634	0.109392	0.453876	0.168701	0.035347	-0.228213	0.107780	-0.121330	-0.754908	-0.139450	0.357446	0.807071	0.415468	0.136048	0.113188	-0.192942	-0.385490	-1.121379	0.122943	-0.367829	0.101666	-0.043088	-0.462408	0.565262	-0.905506	0.552029	-0.255462	0.080249	0.223346	-0.048135	-1.151883	-0.020838	0.408497	0.034709	0.122101	0.071410	-0.146301	
1.258181	-0.157029	-0.168227	0.527313	1.827075	-1.859671	3.264950	-1.066271	0.971760	-1.726355	-0.791947	0.602699	1.407931	-4.346626	-0.093555	-0.333200	-0.421197	-0.008924	-0.067981	0.024396	-1.263085	0.159871	0.582253	4.014761	-1.296611	0.503334	-0.403120	2.227879	-0.038769	-2.215653	0.592957	-0.398963	-0.488288	-0.138408	-0.021956	-0.122140	-0.537384	
0.760346	1.001994	1.619245	0.539030	-3.056118	2.072079	-1.286963	1.510575	-0.053594	-0.375293	-1.645184	0.465771	-0.943627	2.402375	-0.982168	-1.224394	-1.464893	-0.220111	-0.739232	1.260148	-0.319693	-0.954300	1.250671	-1.144596	2.363251	0.479667	-1.483373	-1.341612	0.686207	-1.632211	0.241368	0.275795	3.122187	-0.417955	0.558306	-0.640464	-0.683230	
1.826123	0.958290	0.541328	0.025762	-0.182702	0.812327	-0.434444	0.834792	0.244921	-1.057649	-0.079404	-0.706625	1.378970	2.680789	-0.219345	0.143561	-0.326181	0.276416	0.041774	-0.012267	-0.384553	-0.110949	-1.177839	-0.911805	-0.902134	0.857406	-1.093539	-0.001398	-0.584875	-0.997047	-0.527770	0.190557	-0.605551	-0.547458	0.186938	-0.065953	-0.070465	
5.746462	-0.751631	-3.100083	0.000878	-0.533275	0.260579	1.081777	0.169851	2.728760	-0.413874	0.576170	-0.806053	2.371524	-3.583616	0.630810	0.257002	-2.813836	-1.900680	0.136457	-0.387074	-0.356553	-0.519089	-1.230280	1.952272	-0.874085	-1.591205	1.427937	-1.072311	0.396823	-0.094408	1.407869	0.781802	-0.716142	0.124202	-0.178571	0.064607	0.806984	
0.853501	-0.358714	-0.304244	-0.580670	0.512044	-0.166137	0.583299	0.327959	1.239906	-0.071985	-0.453655	-1.497160	-0.803463	1.529017	0.728469	-1.259651	-1.848959	-0.287997	-0.164473	0.206235	0.854400	0.220690	-0.572792	-1.074835	0.135721	1.215848	0.328287	0.530747	-0.000398	0.953545	0.436066	-0.259918	-0.961492	0.014111	0.234975	-0.115417	-0.122862	
-2.181054	-0.922349	0.206500	0.158569	0.342713	-0.302748	0.645497	-0.877834	-1.041569	-0.558496	0.348311	-0.301407	1.814711	1.705333	-0.309418	-0.020700	-0.024067	0.551557	-0.004834	0.478492	-0.523247	-0.382320	-0.544135	-0.042299	0.889894	0.159687	0.371679	0.457371	0.267258	-0.263824	0.368261	0.006621	0.322718	-0.786663	0.442351	-0.508600	0.058039	
-1.075247	-0.450435	-0.066403	-0.098188	-0.593980	-0.135982	1.612869	0.115282	-0.355256	0.519090	0.373036	1.009606	-0.194301	-1.017525	0.188177	0.077699	-0.043713	1.081791	0.117839	-0.436588	-0.331040	-0.145664	-0.634982	-1.080713	0.706969	-0.085329	-0.137603	0.587282	0.174184	-0.442002	0.812719	0.290206	-0.838644	0.069248	-0.116222	0.229151	0.314669	
-0.655682	1.204379	-0.414164	-0.723859	0.231680	0.591435	-1.081462	-0.591292	0.761907	0.601231	-0.205131	-0.131943	-0.921688	-1.005896	0.146240	-0.298416	-0.060279	-0.963852	0.092426	-0.106693	0.414551	0.136869	0.258971	0.565059	0.456339	0.647095	0.103869	-1.103906	0.341501	0.744760	1.290357	-0.526203	-0.121406	0.217626	0.086111	0.129402	-0.109936	
-2.070553	0.110931	-2.067179	1.320157	0.468207	1.303682	1.447927	1.294822	-2.313119	-1.049354	1.509175	-0.742295	-1.337405	-0.887216	0.093474	-0.586734	-0.169970	-0.089260	-0.287020	0.723048	1.574262	-1.122853	2.324358	-1.127105	-1.104494	1.154310	0.692107	0.883317	-0.280791	0.302283	1.572205	-0.498155	0.248562	-0.020679	0.013111	-1.200842	-0.080918	
-0.059290	-0.377331	0.270060	-1.166864	0.103500	-0.578239	0.499019	0.571479	-1.090578	1.364379	-0.484121	-1.655801	0.296266	1.070222	0.215708	-0.116187	0.687028	0.151159	-0.022505	0.166931	-0.575447	-0.287963	0.484844	0.550072	-0.117708	0.201715	0.538031	0.229869	0.051134	-0.074040	-0.037284	-0.063211	-0.100363	-0.105966	-0.630710	0.374037	-0.281845	
1.262984	-0.517492	-0.242763	-0.133970	0.396847	0.823547	-0.414155	0.183210	-0.120754	-0.816535	-0.375650	-1.145438	-0.576641	0.709128	-0.135514	-0.119007	0.017595	-0.649514	0.045298	-0.161963	-0.694614	0.247049	0.241631	-0.977081	0.983802	0.491187	-0.074655	0.842707	0.331570	0.291700	0.697008	-0.150386	-0.537626	0.469308	-0.036256	0.028544	-0.183104	
0.109388	0.240887	0.530471	-1.659394	0.527253	-0.639145	-0.328599	1.789863	-0.497634	0.393645	-0.480085	0.147934	-0.386028	0.875972	-0.329382	-0.263062	-0.160600	0.326967	-0.085090	0.349318	0.968219	0.680593	-1.259609	-0.027676	-1.601050	0.236549	-0.014158	-0.226234	-0.320489	-0.358603	0.316466	-0.096919	0.199460	0.491213	0.167039	-0.016578	0.399099	
0.365428	0.399406	0.030591	0.976063	2.932434	1.019935	-1.645257	-0.607089	0.155391	-1.346438	0.319433	-0.790000	-1.199705	1.187075	-0.546240	0.258578	0.808053	-0.438380	0.012303	-0.508913	0.805138	-0.049007	1.296395	-1.747992	1.329725	-0.556349	0.385672	-0.101970	-1.343351	-1.272968	-2.405516	0.009187	-0.472292	1.930319	0.404086	-0.116021	0.522275	
2.296141	0.014861	0.882331	-1.082484	-0.023451	-0.613839	1.144081	-1.964270	-4.553749	-0.050851	0.442473	3.511543	2.121737	1.338555	1.719521	-1.124969	-1.835283	0.209024	-0.111819	0.071206	0.379961	0.139320	-2.688140	1.208476	-3.530306	-0.800156	0.581824	0.416457	-0.080001	0.179821	3.701728	-0.552981	2.168439	-2.877334	-0.761741	0.619266	-0.495394	
0.326103	-0.305229	0.643735	-0.161968	0.033562	0.375123	-0.464955	0.364398	-1.284279	-0.069176	0.212740	2.230636	0.322441	-0.482349	0.184017	0.096383	-0.142233	0.461303	0.023856	0.082396	-0.255080	-0.112136	-1.070302	-0.399838	0.170509	0.444161	-1.019285	0.269268	0.039061	0.120894	0.236623	-0.250781	0.121753	-0.614059	0.089007	-0.154017	-0.062282	
1.914095	0.148267	-0.384131	0.591338	0.037689	0.731606	-0.880765	0.788393	-1.048522	0.030630	-0.104344	0.667991	0.230194	-1.302336	-0.264469	-0.232338	1.490505	-1.715254	-0.080313	0.315380	0.681185	0.188672	-0.648020	1.209795	0.970842	0.112829	-0.875095	-0.650466	0.314808	-0.257303	0.013260	-0.637520	-1.177251	-0.054027	0.083429	-0.605501	0.396748	
-0.259834	0.060043	0.170870	-0.765909	0.251031	0.249946	-0.037822	-0.127137	-1.686679	0.489506	-1.283728	-0.712597	0.603371	2.627175	-0.009325	0.114829	0.073123	-0.565667	0.235388	0.290953	-1.156706	-0.067863	0.187360	0.551110	-0.381439	-0.546098	-0.063355	-0.068358	-0.188565	0.674560	0.902671	0.935592	-0.404777	-0.390974	0.255999	-0.190955	0.234262	
0.962805	1.334122	0.115561	0.656219	0.687883	1.009895	0.840381	0.251726	-1.997930	-0.141867	0.721381	3.689105	-0.434265	0.743842	-0.538850	-0.436963	-3.252041	-2.362354	0.473899	-0.643790	1.200235	0.652305	0.653107	0.195429	-0.134176	-1.112175	0.218320	1.984812	0.227940	-3.471763	0.618845	0.024858	-0.197940	-2.533674	0.098758	0.311091	-0.414731	
1.520802	-0.031811	-0.814766	-0.180301	-0.181861	0.181003	-1.566993	-0.221457	-0.401038	1.442620	-0.626467	0.419228	1.888372	3.146207	0.136978	-0.758543	-0.290639	-2.164071	0.223131	-0.286946	0.454100	-0.243532	-2.062751	-0.570327	-0.381201	-1.168106	0.630474	0.366806	0.158686	0.052662	-0.780948	-0.114894	1.050253	0.366125	0.518670	-0.015086	0.305623	
4.218541	-3.952417	-2.228436	-1.622613	-1.295829	-0.720776	2.845813	-0.770399	-0.105453	-0.831871	-2.340306	-9.098748	-2.709774	-1.134838	0.322240	0.516562	1.211874	4.670502	-0.111752	0.931785	1.882219	0.870511	3.179497	3.332363	-1.161490	-1.413353	0.820761	3.144109	-1.035392	0.695025	-1.758797	0.824158	2.677796	2.038646	-0.060218	0.108998	-1.938940	
-1.286737	-0.908320	1.238601	-0.548993	0.463679	1.368855	-0.960553	-0.884394	1.113950	0.691584	0.200001	-1.367062	-0.814538	0.223137	0.254369	-0.009066	0.086097	-2.025687	-0.578910	-0.051674	1.057895	-0.100281	-0.180606	0.413683	-1.080454	0.784167	1.003869	1.818802	-0.460303	0.264864	0.369343	-0.129491	0.012701	0.398153	0.325077	-0.433813	-0.267944	
-0.268764	-0.158197	0.650006	0.204267	0.148817	-0.574125	0.582116	-0.295149	-1.156823	0.330696	-1.399172	-0.283915	0.560800	-0.363046	0.019773	0.376800	0.028007	-0.081370	-0.261637	-0.173475	-0.029819	-0.088945	0.789702	-0.075648	0.134291	0.381370	0.000383	0.176376	-0.233237	0.714460	0.042274	1.412387	-0.802630	-0.411372	0.368291	-0.593248	0.329757	
0.759633	0.622673	-0.665617	0.090067	-1.030912	-1.337703	1.928284	1.134309	0.127271	-0.699066	0.389711	-0.064840	0.006044	-0.300896	0.504163	-0.325199	0.009933	0.286650	-0.175949	-0.155797	-0.854901	-0.062647	-0.581487	0.174626	-0.367575	-0.618005	-0.973112	1.051265	0.074749	-0.009206	1.471006	0.161084	-0.569037	0.882541	-0.333506	-0.101876	-0.446683	
0.893204	0.667535	-0.888005	0.018966	-0.402523	0.277469	-0.379471	-0.099465	0.090546	-0.365082	0.364864	-0.673593	0.903995	0.961575	0.417780	0.214532	-0.146931	0.012802	-0.061928	-0.227268	-0.148745	-0.422184	-0.648218	0.221103	-0.690146	-0.635024	-0.072377	-0.202129	-1.128478	0.777308	0.380400	0.254408	0.040282	0.219691	-0.254609	0.129952	0.599768	
-1.586721	-0.495167	0.830585	-0.552953	-0.649063	0.443783	0.673732	-0.504315	-0.806335	0.174344	0.049945	0.018058	1.200294	0.446217	0.591195	-0.272377	-0.211406	0.893806	0.117012	-0.531334	-0.103980	-0.428631	0.007213	1.169071	-0.540735	0.230917	-0.199952	-0.081639	-0.481625	0.694331	0.334841	-0.537348	0.131141	-0.192727	-0.143000	0.001003	0.311825	
1.014381	0.313555	-0.110123	0.255938	-0.841905	0.551543	-0.400104	-0.456534	0.140522	-1.348731	0.824078	-2.280987	0.266684	0.675668	-0.152186	0.228799	0.378058	0.301253	0.178879	-0.431950	0.153653	-0.536957	0.029436	0.237767	-0.261466	0.246012	0.540608	-0.153598	0.057846	0.177773	0.030632	0.314424	0.489904	-0.712025	0.433319	-0.435663	0.281497	
0.944429	0.038936	0.177724	0.204246	0.443893	-1.588594	0.892219	0.291782	-0.649532	0.917975	0.227675	0.025811	-0.574520	-0.364859	-0.312074	0.218980	-0.508637	0.116451	-0.133188	-0.061366	0.651457	0.421966	-1.197632	1.177436	1.082355	0.175437	-0.384772	-1.028840	-0.071071	0.208773	-0.326099	-0.224489	-0.243063	-0.309478	-0.111770	0.304371	-0.431932	
1.091593	-0.182310	-0.019488	-0.014711	0.255842	0.150197	0.014882	0.160840	-0.289073	0.307574	-0.047642	0.394993	-1.137086	-1.503832	0.146282	0.089999	-0.223916	-0.242577	-0.119736	0.063840	-0.275531	-0.123613	-0.276930	0.204158	0.792924	0.223816	0.387441	-0.060510	0.057775	-0.502656	0.027371	0.567391	0.139537	0.190295	-0.005380	-0.187569	-0.054186	
0.098579	0.263389	0.530407	0.631485	0.407778	0.062186	0.282015	-0.800087	0.105963	0.700124	-0.217253	-0.513701	0.062744	-1.251645	-0.177305	-0.342681	-0.364076	0.628879	0.110754	-0.853617	-0.669361	0.383790	0.094485	-0.186015	-0.415574	-0.369015	0.422951	1.388910	0.264528	0.042820	-0.146124	-0.045604	-0.529804	-0.185005	0.250372	0.191472	0.143236	
0.721198	0.406733	1.725663	0.064110	-0.787926	-0.296762	-0.927369	0.700510	-0.199412	-0.631226	-0.448923	-0.925235	0.809263	-0.699053	0.002130	-0.159737	-0.291513	0.508666	0.141390	-0.360377	1.222989	0.156988	-0.546693	-0.468201	0.528704	0.186517	0.096578	0.157837	-0.470383	0.307269	1.100418	-2.777582	0.559313	0.800132	-0.063703	-0.135485	-0.006827	
-1.221280	0.892970	0.234900	0.136493	-0.358190	1.712336	-0.000308	-0.485627	0.978195	-0.344226	-0.291291	-1.326422	-0.632749	-1.367907	0.179098	-0.339788	1.004878	0.538129	0.200670	-0.171751	-0.169969	1.610469	0.250351	1.358677	1.087916	-2.376972	-1.442717	-0.735293	0.554003	0.112970	-0.255515	1.186386	-0.629087	-0.347958	0.766194	-0.642388	0.334803	
0.235307	0.120537	0.187562	0.053809	0.212944	-1.290085	-0.423171	-0.392779	-1.422068	0.192201	0.336803	1.022564	0.750108	1.299830	0.226196	0.621204	0.130561	-0.764985	0.229524	-0.210660	-0.031258	-0.648629	-0.585460	0.342738	-0.873412	0.591927	1.011767	0.315244	-0.519202	1.086032	-0.957445	-0.869005	0.028248	0.738272	-0.189516	-0.180262	-0.375443	
0.096431	0.052784	0.127376	-0.214318	0.770351	0.409558	-0.538383	0.410161	-1.308741	0.748808	-0.725080	1.465035	-0.009728	1.356406	-0.457953	0.158038	-0.553030	-0.863344	0.053266	0.034692	-0.931249	-0.115139	-0.106408	0.585282	-1.692940	1.353080	0.750896	-0.292939	0.219450	0.318332	-0.345334	0.022542	0.179306	-0.982794	-0.409258	0.457619	-0.022773	
-0.202518	-1.013922	2.025885	1.700464	-0.340141	1.674394	-0.176762	-1.028168	-0.541077	0.224771	1.415608	1.369438	-1.582031	0.149589	-0.798919	-0.877270	0.086549	-0.068887	-0.331535	-0.851931	-0.226487	0.158147	-0.807722	0.423495	0.699944	0.071786	-1.570154	-0.404929	0.530465	0.275348	0.549425	1.260231	-0.636301	-0.673181	0.814339	-1.132203	-0.165742	
0.480829	-1.032068	0.756472	-0.753506	-0.222914	0.477039	-0.559004	-0.599123	-0.387315	1.108680	-0.552541	-1.454365	-0.381066	1.090455	-0.265130	1.196082	-0.253865	0.632246	-0.050740	0.062493	0.834327	-0.325259	-0.261546	0.293247	-0.152957	0.222070	-0.506507	-0.034720	-0.761415	-1.225162	0.919367	1.101862	-0.027823	0.117153	-0.057248	0.163198	0.408751	
2.050231	0.035184	-0.315450	0.357960	0.669976	-1.079352	1.778397	0.664823	-0.932141	0.719167	-0.363929	-0.986384	1.042733	1.277519	0.027632	-0.418348	0.510758	-0.574561	-0.128657	-0.177791	-0.672558	0.224314	0.100851	-1.165759	-0.262737	-1.825284	-0.753455	0.398944	-1.023567	-0.548612	0.320994	1.365988	0.143247	0.320073	0.112959	-0.270460	-0.622703	
2.535196	0.196347	0.012819	0.974718	-0.657024	1.704708	-0.473560	-1.275643	2.876509	-2.153094	0.115196	-3.584111	-1.674006	-2.900062	0.838985	0.594204	-1.561134	-0.734543	-0.344367	0.711294	0.492939	0.316390	4.064998	1.197092	1.357975	-0.112352	-0.664637	0.034504	-0.069880	1.319104	-0.456212	-0.290825	-1.125718	-0.332625	0.075361	-0.537268	-0.471279	
1.544272	0.294979	0.432656	0.324362	-0.015645	0.703096	0.538420	0.422649	-1.234846	-0.487293	0.042963	0.002929	-0.611886	2.050457	-0.469530	0.089861	0.672403	-1.339829	0.094261	-0.500760	0.590552	0.031534	1.401766	-1.891201	-0.312567	-0.191254	-0.758476	0.187313	0.294536	-0.319423	-0.759255	-0.566085	0.132127	-0.696997	0.688681	-0.218319	-0.166447	
-0.356307	-0.630493	-0.124601	0.646262	0.027203	-0.300510	-0.075177	-0.132805	-0.266298	0.563767	0.480131	0.862688	-0.765416	-1.095223	-0.151336	0.037166	-1.099018	0.334216	-0.075990	0.251631	0.095447	0.444936	-0.280276	-0.244627	-0.040356	0.085019	-0.409818	0.417232	-0.271942	0.268168	1.286086	0.799135	-0.879567	0.872404	-0.333018	-0.136300	0.197588	
-0.024786	-0.119859	0.650169	-0.153397	1.775572	0.258644	0.579437	0.077255	-0.560938	-1.836911	0.532584	0.466287	-0.848796	1.244293	-0.996816	1.052684	0.109474	0.290290	-0.144749	-0.059682	1.217742	-0.306899	0.226795	-0.225962	-0.289272	-0.639515	0.087182	-0.007449	0.263851	-0.460293	-1.140582	-0.304080	-0.646866	1.271711	0.184022	-0.682819	-0.838320	
1.198482	1.238175	-0.808056	0.143828	-0.384459	-0.116194	-0.418147	1.347812	-1.069420	-1.444097	-0.879890	0.153929	1.411819	-2.056396	0.188015	0.342056	-0.173689	0.457510	-0.001933	-0.366472	-0.519135	-0.835684	0.064278	-0.491273	1.073939	0.756352	0.539995	-1.201869	-0.129461	0.415161	1.894988	-0.505739	0.189869	-0.062778	-0.065556	0.210183	-0.096140	
-2.959923	0.740941	-1.796959	0.251104	-0.483046	-0.594483	-1.088837	0.557901	1.226721	-1.575682	-0.307070	3.595339	0.535146	0.939667	-0.682924	-0.674255	1.516910	-0.811185	0.064698	0.679046	1.963743	-0.188474	-5.265680	-3.767407	0.259115	2.174545	0.732853	1.404218	2.055960	-0.719746	2.221430	0.404390	-1.512462	0.464294	-0.314209	1.067637	-0.113317	
1.060947	0.434945	-0.426143	-0.107121	0.638664	0.726934	-0.379479	0.134145	-0.383817	1.215609	1.423398	-2.177899	-0.114989	0.561260	0.238367	0.249011	-2.582065	-0.572896	0.048233	0.092002	-1.368932	-0.319361	2.163185	0.465003	1.343074	0.011396	-1.035194	-0.386393	0.364700	-1.689791	0.752820	-1.452413	1.175042	-0.098402	0.706915	-1.094017	0.383262	
-2.221480	0.686479	1.178689	0.774151	1.769269	-0.940947	0.601992	1.022758	-0.857196	0.892807	-1.709377	-2.411832	-0.399790	3.819699	1.045211	-0.416147	-0.382574	-0.283610	-0.024706	-0.316575	-0.412859	-1.224854	2.436936	-2.297445	-0.191436	0.877797	-0.742988	-0.525525	-0.949942	1.193717	2.105226	0.264323	-0.690356	-2.338612	0.632051	-0.632667	0.669813	
-1.859890	0.897985	-5.220766	-2.685105	-1.234708	2.919400	1.321757	1.765116	-0.163691	-2.480572	-0.635924	2.406284	-0.716256	-0.149483	0.700607	-0.131931	0.972369	0.204508	0.080629	0.628440	0.165459	1.094643	-0.078863	3.423710	-0.871287	-2.237864	1.140026	0.009392	-2.115844	1.155210	-1.045726	0.777844	-1.672051	1.382099	0.367901	0.428884	1.457700	
1.072426	0.114771	-0.439323	-0.172693	0.088173	0.317126	-1.386177	-0.358101	-0.288203	-0.510340	-0.046010	0.644394	1.064434	-0.177840	0.011945	-0.108478	0.548445	0.277149	-0.023883	0.201951	-0.501527	-0.216723	0.100596	0.430669	-0.770585	-0.491559	0.108827	0.224063	-0.048465	-0.151048	0.902398	0.158887	0.020987	-0.595780	0.111390	-0.167598	0.055706	
0.388966	0.397256	0.727597	0.338372	-1.004548	-2.462674	-1.753684	2.372602	0.044514	0.361495	1.020334	-0.120008	-0.360488	0.870931	0.207041	0.159633	1.279437	0.548133	0.102713	0.370071	1.464122	-0.024795	-1.330717	-0.579573	0.330033	-0.877089	0.484357	-1.177822	-0.100476	0.109791	-0.741547	-0.511027	-1.541765	-0.004341	0.357400	-0.128609	0.784361	
0.650641	-0.554135	0.770765	-1.327716	-0.931983	-0.212509	1.000371	-0.033172	1.432333	0.524933	-0.326536	-0.442660	-0.411465	1.988415	-0.653876	1.306022	-1.557120	-1.347727	0.276574	-0.002398	-0.170942	0.903278	0.174946	0.301853	-1.964576	-0.113958	0.106038	-0.982462	0.243310	-0.045170	0.442983	0.531298	-0.276866	0.183951	-0.034235	0.849938	-0.298142	
-1.756444	0.014380	-1.950871	0.422202	-0.861225	-1.258030	0.355628	0.607793	-0.104528	-0.623575	0.447894	1.001770	-0.674400	-0.260762	-0.056288	-0.256240	0.124273	-0.654081	0.341181	0.132474	-0.428544	-0.508732	0.561995	1.384041	0.223425	-0.534705	0.946949	0.953325	-0.341461	-0.250927	-0.243424	1.377608	0.421814	0.835801	0.426684	-0.011634	0.196636	
0.916516	-0.451162	0.025432	0.676698	-0.776228	0.835326	-0.845215	-0.481266	0.506843	-1.143830	0.665726	-0.117198	0.518900	0.191675	0.136046	0.125873	0.424605	-0.310450	-0.012531	-0.248421	0.187798	0.355632	0.813520	-0.085733	-0.773279	-0.717556	-0.381250	0.180036	-0.743650	0.041342	0.424912	0.117230	0.362603	-0.049910	-0.154854	-0.170422	-0.043759	
0.784192	-1.386415	1.222829	-0.291170	-1.129043	0.536440	-2.906369	-0.773312	-0.329541	0.861976	2.121239	2.288123	1.384721	-1.173180	-0.766571	0.058955	1.321941	-1.621243	-0.053183	-0.286365	-0.149020	0.505432	0.582578	0.317571	0.658545	0.581729	-0.176540	-1.416688	0.797255	0.130263	-0.534319	-2.494136	0.747710	0.287365	0.011717	0.238884	0.047632	
-0.895187	0.177210	-2.003604	0.312953	-1.924781	0.817491	0.506639	0.511024	-0.380174	1.239923	1.120260	0.256537	0.206024	0.120954	-0.372229	-0.124239	0.371148	-0.676408	-0.057223	-0.837200	0.940466	0.107114	-1.885949	0.901284	-1.025158	0.691555	-0.168446	0.295838	0.052221	1.158210	0.076374	1.004411	0.640806	-0.784895	0.119978	-0.028993	-0.463934	
-0.643558	-0.010540	-0.300679	-0.712030	-1.305233	0.953863	1.457785	-0.788016	0.177875	-0.141920	2.064555	-0.564321	2.100720	-1.912692	-0.103459	-0.516856	-1.084766	1.457204	0.142980	-0.133421	0.051267	-0.024264	-0.709138	1.571725	0.101586	-0.236187	-0.028096	-0.232606	-0.049858	-0.508076	0.270681	-1.434814	0.085365	0.507159	-0.157654	0.646182	0.009238	
-1.179612	-0.685968	0.258539	-0.360322	0.721827	-0.385964	-0.550962	-0.051040	0.257595	0.468643	0.331919	0.110351	0.674357	0.318248	-0.594446	0.070843	-0.212506	-0.508301	0.070668	-0.070230	0.001810	0.285711	0.297195	-0.458979	-0.666790	-0.046996	0.498318	0.189946	-0.251154	0.584354	0.040230	0.055908	0.458440	0.343554	-0.052325	-0.193146	0.230285	
-1.829467	0.602345	-0.330930	0.235577	0.288069	0.403637	-5.572223	0.835676	1.672909	1.335609	-0.182522	-1.759039	1.174210	1.637333	-0.773134	0.753962	1.293504	-0.662692	0.238485	-0.010875	0.391103	0.159236	-0.018060	1.003640	0.775775	-0.500879	-1.628757	0.550182	-0.039911	0.596183	-2.099121	0.207591	-0.698335	1.700411	0.260089	0.139123	-0.148703	
-1.073551	-0.542267	-1.314008	0.919532	-0.544464	0.347183	-0.220076	-0.131990	-0.177732	-0.245785	0.126810	-0.685980	1.073275	0.281182	0.195122	0.309073	0.344643	0.548361	-0.073224	0.340957	-0.054719	0.596405	-0.725496	-1.109879	-1.206997	0.535555	0.626085	-0.462035	0.321486	0.512484	1.104337	0.249213	0.045099	0.083635	0.212123	0.159873	-0.364228	
-0.925271	0.627878	0.101763	0.624340	-0.591315	-0.995232	1.702271	-0.736213	1.148704	-0.297043	-0.480184	1.277848	1.053875	-1.645745	0.846040	-1.466086	0.240552	-0.761131	-0.101191	0.438623	0.871170	0.648732	1.334916	0.044691	-2.893593	-0.826357	1.187190	-0.998971	0.536952	1.611720	-0.546014	-1.352944	-0.270206	0.289823	0.268158	-0.150285	0.182534	
0.298327	-0.070393	-0.462649	0.133336	0.164945	-0.344787	0.303951	-0.061960	-0.411873	-0.916893	0.130816	-1.169500	-0.383417	1.069523	0.465684	-0.010711	-0.072291	0.618080	-0.134508	0.010029	-0.368241	-0.329413	0.380670	-2.151247	0.444336	0.177160	-0.393274	0.283957	0.092771	-0.042818	0.199043	0.555409	0.544353	0.854333	0.006062	0.631409	-0.040219	
-0.330238	0.461575	-1.550047	-1.173032	1.010457	-0.798975	-2.154111	0.407303	-0.408636	-0.623337	0.212634	0.186139	-0.572037	-0.077188	-0.280914	-0.537481	1.647958	0.462791	-0.092648	0.484571	0.223465	-0.543877	-0.747918	0.829545	0.570034	-0.667618	0.869580	1.634825	0.565803	-0.460416	0.158134	0.423119	0.370668	0.782499	0.210882	-0.012718	-0.480791	
0.104690	0.450466	0.990617	-0.734143	-0.108502	0.141297	-0.831667	-1.677115	0.357001	-0.455745	-0.248192	0.898704	-0.754521	1.231996	0.026754	0.069298	-0.009121	-0.632997	0.277827	0.743266	-0.093690	-0.237294	0.109978	0.130363	0.091815	0.195634	0.608726	-0.134896	-0.358792	-0.806403	-0.271317	-0.501738	0.617559	0.937918	-0.112266	-0.125678	0.110170	
0.496897	-0.784871	0.585355	-0.287336	-0.548240	1.187844	-0.722713	0.099248	1.087206	-0.462078	0.357985	-0.632147	-1.369539	0.624251	-0.825607	-0.789281	-0.695669	1.745503	-0.064596	-0.398820	0.034583	0.769178	-1.531971	0.292570	2.355007	-0.419479	-1.478473	1.005184	-0.119503	-0.503140	0.381209	-0.073282	0.037545	0.087388	0.359572	-0.101650	0.301870	
0.443619	0.250500	0.410886	-1.088681	-1.155405	0.410887	0.546671	-1.090424	-0.887145	1.187565	0.500304	1.706269	-0.793966	0.925421	-0.385143	-0.741619	-0.671165	-2.462050	-0.111369	0.701919	-0.823207	0.572944	1.201365	-1.315904	1.110272	-0.261825	0.730918	-1.148692	0.086375	0.709276	0.311186	1.867622	0.798476	0.079028	-0.191012	-0.416041	-1.007855	
0.114941	0.620831	-0.246653	-1.119235	0.130074	0.875733	-0.013595	-0.378494	-0.131319	0.819718	1.037748	1.067866	0.663909	-0.791175	0.110087	-1.256885	-0.899354	1.226445	0.151933	-0.179231	-0.938062	-0.049924	-0.686658	0.582299	0.268157	0.134608	0.857136	-0.326328	0.135377	-0.392281	-0.235000	-0.071863	0.652273	-0.072043	-0.815573	-0.632804	-0.212658	
0.071006	-0.681877	-0.513113	0.591770	-1.092483	-1.212687	-0.459487	2.080725	1.888852	2.089709	-0.327488	1.730625	-2.404571	-0.732099	0.881273	-1.524814	0.596023	-2.146665	0.267482	0.785417	-0.318935	0.597561	0.534822	1.294433	0.069626	-1.096264	-1.284472	-0.569919	-0.347170	-0.700423	-0.030818	0.679948	0.516802	-0.061277	0.127169	1.073227	-0.371908	
-0.542131	1.077828	-1.415557	0.333911	0.110962	0.284061	1.962101	-0.620223	1.510538	-0.426170	-0.845483	-0.574758	1.999454	0.513548	-0.322102	0.322870	-1.203729	-0.409431	-0.302945	-0.217702	0.973624	0.439165	2.214569	-0.205768	-2.434603	0.755562	1.081310	-1.254924	-0.109076	0.776898	-1.786904	-0.093447	-0.227731	-0.737314	-0.756055	0.400839	-0.271186	
0.678872	0.092195	-0.369869	0.905892	-0.072436	0.462956	-0.482779	-0.197114	1.223850	-0.427321	-0.346439	-0.009372	-0.147394	0.118864	0.364947	-0.458090	1.568343	-0.145815	-0.035526	-0.030349	-0.263356	0.195897	-1.061408	1.331449	-0.499729	-0.242513	-0.916267	-0.099851	0.279874	0.108062	-1.136293	0.369724	-0.442972	-0.241202	-0.469858	0.264933	0.130092	
0.355434	-0.425428	0.184299	0.172459	-0.243097	-0.378520	-1.258866	-0.393532	-0.305640	0.086561	0.352946	-1.181808	-0.368516	1.408663	-0.056818	0.479644	0.419622	-0.468983	0.010903	0.209484	-0.004168	-0.234458	0.929883	-0.872115	0.570416	-0.388191	0.563755	-0.046905	-0.368089	0.603445	0.508253	-0.397089	-0.164915	0.107905	0.162493	0.211439	0.219534	
0.666514	-0.957663	0.599819	0.729677	0.028387	0.393953	-0.188393	1.070813	0.880206	-2.520145	0.227411	0.406362	-1.035753	-0.033941	0.600462	-0.588260	0.393896	-0.310033	0.133319	-0.198523	-0.815937	-0.012196	-0.692596	-0.495352	0.457921	0.805041	0.493270	-0.267534	-0.070663	0.045217	0.599802	0.088253	-0.303349	0.225336	-0.035827	0.279687	-0.599181	
-0.479432	0.975424	0.487697	0.101255	1.037822	1.355915	1.393993	-0.171503	0.218696	-1.113153	-0.681220	0.942130	-0.689135	-0.441235	-0.060101	0.074430	-0.537648	0.219585	0.322124	0.055781	-0.272542	-0.430807	0.760547	-1.199460	-0.029679	-1.289042	-0.899179	-0.095080	0.151157	-0.467866	0.438532	-0.811987	0.605959	0.528441	-0.242874	0.209827	0.032631	
-0.769845	0.784091	0.184533	0.075947	0.316946	0.506448	0.104198	0.000499	-0.100409	-0.487312	-0.292752	-1.200442	0.528791	1.094048	0.131130	-0.187094	-0.098040	0.932896	-0.556187	0.270604	0.365838	-0.238704	0.488970	-1.364512	-0.129791	0.131966	0.005870	-0.216349	-0.173229	-0.358266	0.468239	0.302124	-0.268345	-0.027786	0.117466	-0.115459	-0.226082	
0.597867	-0.437307	0.480913	-0.190522	-0.241451	-0.761798	-1.014639	0.035611	-0.061144	0.010850	0.171456	-0.865124	-0.052767	-0.322117	0.295282	-0.741508	0.199317	0.332004	-0.075760	-0.064646	0.249475	0.323245	0.618411	0.203954	0.283859	-0.402792	-0.001013	0.186900	0.691100	0.395827	0.395061	-0.342663	-0.068750	-0.075934	0.024798	0.073651	0.150354	
-0.241306	-0.560933	0.705759	0.410216	0.175615	0.352788	1.266004	0.223627	0.580218	0.704239	-0.314084	-0.142114	-0.455883	1.107587	0.625441	-0.152429	-0.680790	-0.283521	-0.010203	-0.406718	-0.029834	0.302438	1.280469	-0.657761	-0.179796	0.798894	-1.603464	0.089542	-1.277870	0.021038	-0.628043	-0.538841	-0.352805	0.110256	0.187273	-0.190657	-0.234351	
0.380496	-0.366740	-0.436992	0.518658	0.058762	-0.166858	-2.240752	-0.015649	0.425599	1.211466	-1.180496	0.148435	-0.294037	0.013330	0.134574	0.167709	0.122773	-0.786486	0.096335	0.436475	-0.035439	-0.800369	0.982734	-0.406318	0.714365	-0.215218	0.452290	0.949152	0.223386	-0.384761	0.111219	0.185801	0.625313	0.299589	0.435606	-0.056670	-1.307285	
0.022204	0.223709	-0.826608	-1.147449	-0.014942	-0.170130	1.431265	0.564844	-0.524258	0.722418	-0.120785	0.025050	-0.624373	-1.244068	0.209243	0.251924	0.073500	0.613056	0.064710	0.417771	0.833806	-0.281062	0.646702	-0.379841	-0.705395	0.310100	-1.113481	-0.371954	0.320479	0.238848	0.175430	0.017055	0.328090	-0.112453	0.011368	0.193143	-0.057913	
-0.683579	0.441556	0.328790	-0.358412	-0.141444	-0.211785	0.179344	0.656215	-0.052275	-0.669421	-0.001176	-0.118295	-0.300966	-0.744534	-0.615185	0.059673	0.695711	-0.549229	-0.124038	0.150188	0.140885	0.037961	0.541651	0.777450	0.046406	0.267068	0.027496	-0.044476	0.192421	-0.504370	-0.193171	-0.291919	0.351063	-0.071925	0.554828	-0.297048	0.524543	
-0.534716	-0.045706	-0.893796	0.080261	0.012188	0.318052	-0.007067	0.498978	-0.489365	0.680756	0.322114	-0.522130	0.778510	-0.703983	0.130006	-0.445272	0.033000	0.573185	-0.015547	-0.368746	-0.381073	0.039349	-0.059977	0.044578	0.442677	0.425550	0.168216	0.403785	-0.097263	0.475882	0.049459	-0.544514	-0.263297	-0.650318	0.253471	-0.006752	0.299503	
2.022658	-0.243991	0.161704	-0.347788	-0.025354	-0.445837	0.931853	-0.086776	0.971438	-0.028812	0.335525	-0.520116	-0.175701	-0.230706	-0.171569	-0.229479	0.675602	-0.750469	0.186922	0.077340	0.325924	0.313382	-0.650088	-0.515199	-0.648218	-0.442387	-0.563923	-0.224794	0.404160	-1.308600	0.108802	0.103021	0.022006	0.926673	0.415674	-0.182841	-0.190034	
-1.768992	1.513789	-2.768017	1.883616	1.710763	0.773944	-0.942652	-0.682994	-0.584181	2.396103	-0.440945	0.307281	-0.064868	1.761159	0.137224	-0.593469	0.390645	0.024762	-0.531835	-0.364863	0.512278	-0.046026	-0.006175	-0.945748	0.214633	1.648862	-0.530417	0.030489	0.458855	-0.245844	-1.763607	-0.614012	-1.967816	1.120338	0.286726	1.280085	-1.589089	
1.189020	0.426839	-0.205693	0.768404	0.435476	0.362672	0.522611	-0.283846	-0.383253	-0.911890	0.354466	-0.922384	-0.200422	0.179907	-0.408392	0.164504	-0.111715	-0.544149	-0.053625	0.201486	0.574827	0.132525	-0.576573	1.661263	-0.253221	-0.135472	0.348472	-0.554329	-0.024928	0.224581	-0.987091	-0.859316	1.189693	-0.637612	0.150392	-0.522315	-0.310914	
-1.118161	0.261553	-1.883439	1.650343	0.589988	1.463857	-1.837550	-0.412312	-0.207366	0.584238	-0.836131	-0.198970	0.732237	0.998992	-0.125881	-0.971302	0.762837	0.030481	0.017658	-0.252016	-0.225259	-0.413460	0.255254	-0.018252	-0.051917	-0.030647	0.075386	0.304703	-0.323400	0.177620	-0.774470	0.161695	-0.043477	0.413582	-0.491619	0.401244	1.333962	
-1.340558	0.351915	0.590089	-0.032928	0.280720	-1.712118	2.357836	-2.597732	0.087170	2.048695	-0.363545	-0.357157	1.134088	0.841887	-0.231603	0.591761	0.440707	1.431383	-0.043912	-1.214841	0.079462	-0.178025	-0.551781	-2.173788	0.114355	0.796365	-0.302062	-1.290661	-0.537831	1.810036	-2.258855	1.982095	-1.343551	-0.153277	1.128264	-0.659849	1.277248	
0.477710	0.541373	-0.077205	-0.510355	-0.186660	-0.458090	-0.558626	0.356790	0.093811	-0.875892	-0.303250	-0.676015	0.077485	-0.162151	-0.039586	-0.009419	-0.024473	-0.299968	0.012184	0.188840	0.425165	-0.161305	0.670488	0.194289	0.441927	-0.627669	0.423101	-0.441350	0.039434	0.705981	0.445987	0.197609	0.243433	-0.341073	0.041549	0.134649	0.041285	
-1.041902	-0.408208	-0.292290	-0.214833	-0.410403	0.296123	0.770228	0.635255	0.539869	0.623191	-0.985490	-0.162253	0.555128	-0.776478	0.395062	-0.453935	0.269412	0.306008	0.330148	-0.561848	0.183906	-0.338368	-0.395147	0.309030	0.531753	-0.530875	-0.161556	-0.668862	-0.198990	0.020758	0.021276	1.559288	0.150467	0.155277	-0.225146	0.475658	-0.301253	
1.550993	-0.790165	0.641446	0.450908	-1.362591	1.740063	0.625663	-1.268482	-1.151565	0.656895	0.016365	2.055789	0.054357	0.917877	0.903126	0.204140	0.602436	-0.616948	-0.005874	0.499758	0.201571	0.313200	-0.558018	-0.777731	-1.519566	1.627520	-2.059418	0.095102	-0.229306	0.209681	-1.440162	-0.782755	0.173504	-0.086900	-0.265719	-0.383691	-0.241504	
-0.510552	-0.031073	0.351720	-0.103266	-0.158556	0.990457	-0.052844	-0.200612	-0.120180	0.672338	1.332213	-0.266804	-0.001264	0.116727	-0.372676	-1.074040	-0.356281	-0.505123	0.007082	-0.938379	-1.103219	0.518452	0.615942	0.211663	0.313508	-0.870507	-0.100337	0.284518	-0.057208	0.482978	1.316167	-0.684524	0.191231	-0.456637	-0.006389	-0.196120	0.761596	
0.189314	-0.374013	-1.266818	-0.308593	0.885817	0.151791	-0.024498	-0.273345	0.845797	0.346742	-0.606405	-0.491470	-0.689609	-0.996472	-0.562660	-0.058687	0.716265	0.270059	0.016924	0.115015	0.260723	0.134579	0.187301	-1.263890	1.657075	-0.445227	1.022285	0.257030	-0.381870	-0.133525	-0.026333	0.364910	0.473111	0.470886	-0.365896	-0.192127	0.095812	
-1.795767	-0.684158	0.005404	-0.613064	0.251760	-1.809794	1.389040	-0.712618	-0.580656	1.199224	-0.371284	1.032878	1.069500	1.115658	0.064977	0.221611	0.085135	0.308422	0.034253	0.029067	-0.184047	-0.221551	-0.554247	0.118130	0.783826	0.020358	-0.046972	-0.470988	0.519485	-0.382554	-0.092829	-0.600894	0.446374	0.864900	-0.094647	0.036867	-0.380797	
1.635130	-0.054441	-0.349589	-1.983861	-0.834671	0.160923	-1.534607	1.004534	1.733655	-0.528054	-1.105548	-1.973652	-0.742983	-0.033010	0.867415	0.167605	0.612570	-0.755002	0.183732	-0.020141	1.956592	-0.227724	-0.953911	0.417655	-0.455980	0.428850	-0.760095	-0.411807	-0.399957	-0.789679	2.617199	1.307006	-0.857255	0.935634	0.030072	-0.217450	0.930843	
-1.315092	0.870827	-0.088318	-0.513332	-1.148925	0.763709	0.607680	-0.213880	0.344730	-0.275900	1.563293	-0.746333	-0.270202	-0.151829	-0.112403	0.358631	-0.138380	-0.007364	-0.305076	-0.282586	-0.047601	-0.410668	0.226108	-0.132778	0.252565	-0.085456	0.650718	0.993949	0.186890	0.052995	-0.190625	-0.848144	-0.111683	0.119956	0.345855	-0.033072	0.091741	
-0.574017	0.058742	0.600101	-0.573819	-0.600311	-0.529608	-1.092747	0.009636	-0.389826	-0.658696	-0.668408	-0.464142	1.095990	1.921516	-0.063370	-0.041451	-0.134716	0.903180	0.651966	0.352824	0.433297	-0.115245	-0.185600	-0.772566	0.554226	-0.510535	-0.527532	-0.078459	-0.152492	0.391968	0.547005	-0.173578	0.096923	0.272065	0.360098	0.292640	-0.235056	
0.820343	-0.105106	0.959441	-0.076374	-0.454178	0.166017	-0.886711	1.176893	-0.601556	-1.300204	-0.120990	1.762015	0.011167	0.975373	-0.651435	-0.010647	-1.223678	0.286163	-0.096829	0.033761	-0.040863	0.347825	0.434812	-1.061799	1.733631	-0.237142	-0.007492	-0.207498	-0.537115	0.277078	-0.486699	0.456201	-0.224925	-0.433052	-0.926033	0.451666	-0.202061	
-3.753559	1.444400	0.052431	1.969520	-0.318605	0.461556	0.814124	-0.272507	-0.229796	-1.055782	-0.564215	1.539527	-1.951606	-0.543646	0.172843	-0.100083	0.900840	-0.757557	-0.167120	0.194304	1.123690	0.204435	0.397647	1.287518	0.278538	0.356543	-0.776347	-0.331787	-0.601636	0.145326	1.395572	-1.371829	0.137815	-0.977006	0.353921	0.311469	0.231060	
-2.744919	-0.267640	-0.886504	-1.260932	-0.477172	1.134557	-1.211063	1.161754	-2.420289	1.532736	1.115026	-0.724268	0.778491	-1.234202	0.079864	0.503023	-2.310692	1.605046	0.132169	-0.427279	1.313880	0.291801	-1.675130	-0.931832	1.635084	0.819238	-0.322262	0.353997	2.079974	-0.869148	-0.114246	-0.322343	2.056250	0.264137	-0.517644	0.134195	1.726344	
0.678421	-0.261374	0.726928	0.095491	-0.833921	-0.109300	-0.420161	0.751253	0.818185	0.422296	-0.486425	0.123246	-0.478815	-0.948298	-0.314252	-0.308888	0.050576	0.346240	-0.161908	0.244159	0.100106	0.441507	-0.208368	-0.162229	-0.766375	-0.272228	0.312676	-0.252338	-0.094343	-0.214004	0.938387	1.134402	0.192143	-1.269050	-0.601551	0.413020	0.374789	
1.091451	0.766054	-0.750362	-0.500521	-0.034656	-0.084800	1.033273	0.290394	-0.912272	-1.791141	-0.024530	-0.186120	0.164434	0.102176	-0.271644	-0.430898	-0.175860	0.497995	0.020211	-0.129634	0.524190	0.259623	0.127434	0.538199	0.424031	-0.148965	0.217127	-0.380854	0.237494	-0.121182	-1.064733	0.555018	-0.273594	1.045343	0.083331	0.172634	-0.868647	
-0.905364	-0.240962	-0.685448	0.003336	0.271427	-0.088312	-0.205288	0.048835	-0.089311	0.111252	-0.088443	0.078503	1.142754	-0.454387	-0.522847	0.430485	-0.418662	0.620945	-0.031471	0.124715	-0.007472	0.199134	-0.409555	-0.235847	-0.012893	0.242883	-0.362982	-0.095426	-0.151832	0.533646	0.119570	0.371551	0.065349	0.729498	0.187416	-0.365198	0.090402	
-0.352727	0.962077	0.399338	-0.962596	0.261188	0.162860	0.309573	0.034338	0.182527	-0.422644	-0.146595	-0.401192	0.896903	-0.763279	-1.161106	0.529965	0.065209	-0.022357	0.013901	0.425615	0.957553	-0.234229	0.639613	0.426661	-0.809886	0.557202	-0.145764	0.147665	-0.109448	-0.368634	0.181612	-0.915160	-0.057746	-0.505501	0.059931	0.356798	-0.191665	
1.367955	-0.725894	-0.448100	-0.505786	0.064781	-0.519078	-0.162728	1.005212	1.239596	1.121681	-1.761478	0.440994	0.791777	-1.169602	0.303367	-0.825994	-0.043245	-0.197143	0.168259	0.041451	0.142849	-0.659985	-0.551687	0.360387	-0.810200	0.910120	-0.078691	-0.331722	0.047012	0.332661	0.302504	0.230153	-0.279644	0.159445	-0.327944	0.000249	0.368472	
0.273109	0.924417	-1.206914	0.649313	-1.137652	-0.710793	1.450631	0.855397	0.764869	0.456074	-0.111684	0.673688	0.255299	0.473232	0.271733	-0.787223	-0.703558	-0.451791	-0.139668	0.692299	-1.943784	0.588691	0.619402	0.003278	0.367557	-0.067150	-0.113186	-1.485292	-0.943084	1.343519	-2.494723	1.521842	-0.590665	0.352937	0.075961	-0.211668	0.485586	
0.492908	0.159770	-0.330139	0.090120	-0.090494	0.015985	-0.544662	0.086884	0.715506	-0.178995	0.390840	-0.390344	-0.677438	-0.353139	0.224001	0.082261	-0.857214	0.268338	0.035437	0.133393	0.165524	-0.173918	-0.310164	0.866085	0.508704	0.143096	0.279951	-0.340426	-0.046846	-0.041781	-0.726085	0.041155	0.380968	-0.122137	0.096755	-0.072648	0.078748	
-0.312503	0.161051	0.333479	-0.000221	-0.003383	-0.050806	-0.045500	-0.547154	-0.523311	-0.456394	0.585066	0.568000	0.192853	0.161224	-0.559125	0.766122	0.014725	0.709714	-0.115956	0.275377	-1.065099	-0.151173	-0.157794	-0.268915	0.362863	-0.454979	-0.440757	-0.017174	-0.028104	-0.433646	0.291739	0.723955	0.655378	-0.210072	0.086615	-0.097590	0.051492	
0.465676	0.748124	0.112024	-0.057275	1.236971	0.142609	0.736981	-0.887831	-1.483887	0.237947	0.707146	1.562915	0.195633	0.484316	-0.445663	-0.338180	-0.781980	0.680757	-0.121077	-0.087298	-0.943093	1.006133	-0.716055	-0.470230	-1.857049	0.663622	-1.926451	-1.346031	-0.121393	0.883774	1.786083	0.154177	-0.300747	2.078191	-0.673123	0.005707	-1.331425	
0.245745	-0.160694	0.240998	-0.653040	-0.082295	0.267245	-1.262142	-0.106329	0.042618	0.076870	-0.325505	0.312781	-0.560924	0.573845	-0.047812	0.241643	0.489935	-1.458648	0.151408	-0.201201	-0.269269	-0.222471	0.166056	0.901456	0.634792	-0.145070	0.244392	-0.155534	0.491446	-0.042883	-0.714972	0.780905	0.305946	0.449487	-0.518282	0.425216	-0.115712	
0.868573	-0.686197	0.730690	1.261154	-1.435231	-2.311395	0.793808	1.044983	2.387619	1.808665	0.482389	-1.298194	-0.461167	-0.159209	-0.602607	-0.162789	-1.149818	-0.451597	0.050447	-0.038613	-0.000406	0.076349	1.066464	0.056587	0.525135	-0.851026	-1.379439	1.564669	-0.266727	0.187173	-1.148562	1.503654	-0.709411	0.549361	0.456908	-0.641695	-1.660546	
-0.890813	-0.192938	-0.355287	-0.918879	0.622053	-0.463115	1.068744	-1.124461	-0.738606	0.310490	0.424729	-0.343671	-0.752551	1.228605	0.313084	-0.113923	-1.640760	-0.078804	-0.087726	0.184873	0.564686	0.243796	-0.965907	-0.324553	-0.524432	-1.061272	0.629966	0.425807	0.578868	0.421822	0.503428	1.579152	0.427913	0.275988	-0.282053	0.420213	0.635534	
0.419888	-1.174611	-0.253666	-0.237280	0.457372	-0.309251	0.350424	0.646557	-0.827357	0.675251	-0.764868	-0.952772	0.087577	0.355219	-0.093573	-0.524133	0.435724	-0.388200	0.076879	-0.320917	-0.739770	0.393404	-0.414989	1.017546	-0.595120	0.308713	0.058206	0.213403	-0.139031	-0.304369	0.325435	0.798254	0.357427	1.224690	0.192892	-0.172398	-0.182557	
0.192035	0.372197	-0.845322	0.035172	-0.071635	-1.313184	-0.228848	-0.481317	0.376999	0.819240	0.561371	-1.377770	0.352122	0.953075	0.019920	-0.153454	1.412017	0.144531	-0.227896	0.338712	-0.183503	0.007609	-0.654874	-0.133817	-0.147715	-0.083231	-0.678919	0.280650	0.671813	0.176415	-0.238906	0.297858	-0.304120	0.217897	0.286147	-0.262575	-0.128694	
0.636933	-0.350304	-0.091792	0.004361	0.080405	0.417900	0.061878	0.113866	1.281493	1.208000	-0.015601	1.179078	-0.563909	-0.644939	0.190080	-0.027260	-2.048129	-0.996336	0.064852	0.021284	0.244699	0.257061	-0.196286	-0.887880	-0.099156	-0.489643	-0.309259	0.705688	0.362795	0.418321	0.046482	0.485915	-1.147247	-0.001000	0.545250	-0.461732	0.004132	
2.014250	-2.227597	2.702145	1.292259	1.969616	1.489862	2.013357	1.439316	0.209834	-2.627682	0.877625	-2.281037	0.855940	1.562587	-1.248941	0.373402	-0.255749	0.159735	-0.813072	-1.012924	-1.311065	0.617554	-2.206681	1.095536	-2.249227	-0.597949	1.400519	0.231515	-1.508013	-1.338097	-1.940847	-0.889717	2.939277	0.466773	-0.271769	-0.166862	-0.763875	
0.120369	0.843389	2.065606	-0.170864	0.228408	-0.455143	0.009163	1.812304	-0.637211	0.077300	-0.159196	0.169384	0.022824	0.489388	0.898749	-0.274541	0.317273	-0.113854	-0.252748	-0.034639	0.585833	-0.880323	-0.331251	-0.383357	-0.480579	-0.227155	0.174810	-1.162701	-0.010669	1.294314	-0.716886	-0.809401	0.840124	-1.661358	0.574930	-0.650999	-1.111293	
-0.078083	-0.160457	1.240514	-1.116136	0.905616	-1.512987	-0.319690	-0.448275	0.120017	0.028821	1.391530	0.747814	0.603454	-0.744299	0.010512	-0.170507	0.493400	0.189696	-0.096063	0.199649	1.180699	0.694986	-0.446282	-0.694317	-0.527806	0.342107	-0.077933	-0.879159	-0.019786	0.598572	-0.083031	-1.460867	0.762305	-1.178062	-0.410552	0.018255	0.896344	
0.146820	-0.008221	-0.138555	0.472749	-0.146060	0.841485	0.617186	-0.502558	0.132862	-0.314638	0.280055	0.309341	0.170725	-1.267737	-0.114141	-0.227039	-0.457050	0.261006	0.121828	-0.380140	-0.390109	0.360501	-0.226307	0.767773	-0.000859	-0.195096	-0.287670	-0.043531	0.140728	0.193381	0.009070	-0.372215	-0.066532	0.141454	-0.129830	0.231665	0.069656	
0.136554	-0.076088	0.029892	0.021326	0.089667	0.009652	-0.170570	0.514901	-0.306816	0.232707	0.194788	-0.690398	0.116425	0.608904	0.024496	0.485491	0.231162	0.093680	-0.058950	0.038727	-0.608858	-0.153348	-0.550684	0.185908	0.108212	0.088232	-0.811447	-0.671113	0.069481	-0.421387	0.006150	1.034184	0.390670	-0.427455	-0.062400	0.107080	0.191223	
0.191054	-0.177123	0.442341	0.459929	-0.822207	0.148011	1.522540	1.490259	-0.307777	-0.819785	-0.397035	-0.600219	0.166614	-0.223941	-0.346056	0.194875	0.009619	-0.114886	0.040181	0.534053	-0.908847	0.053869	0.819364	-0.075475	-0.294794	-0.086402	0.774192	-0.714039	0.264993	0.917312	-0.549390	-1.236413	0.584580	-0.802544	-0.196569	0.089111	-0.029397	
0.263757	0.305716	1.185949	-0.771885	-0.211287	-0.013605	0.102480	-0.411285	-0.073327	0.016935	0.426555	-0.542363	0.554429	-1.440080	-0.165688	-0.020711	-0.518045	-0.050868	-0.215633	-0.183957	0.603387	0.693420	-0.415072	1.047825	0.652371	-0.725328	0.198863	0.443490	0.192602	-1.072426	0.644895	0.511478	0.057294	-0.803883	0.589330	-0.567326	-0.288007	
-0.034717	-0.300145	0.727262	-0.233332	1.002840	0.501783	-1.120341	-0.481853	-0.301229	0.411073	-0.911662	-0.342769	-0.304166	0.043250	-0.019476	0.429493	0.220754	0.691637	0.139483	-0.103575	0.384540	-0.151370	-0.444218	-0.112657	0.981488	-0.257327	0.530864	0.493843	-0.254409	-0.108716	-0.363266	-0.436459	-0.237944	0.325910	0.003864	-0.248233	-0.120219	
0.916002	-0.224623	0.710794	-1.614946	0.748855	-0.299114	-0.642796	-0.547400	0.268551	1.156064	-0.366653	-1.281957	0.562452	0.366697	0.612217	-0.208294	1.158201	0.543432	0.186818	0.503920	0.089526	0.028151	-2.389354	-0.073539	-0.670875	-0.407656	0.642961	-0.294106	0.187194	1.615049	-0.239594	-0.502421	0.332832	-0.373302	-0.013193	-0.643495	0.163601	
0.113340	-3.255887	3.009405	0.801922	-0.416205	2.293058	-0.974360	0.449035	1.179429	-0.954098	-0.577463	-0.402576	1.050896	0.272672	0.447846	0.441670	0.258460	-2.644744	-0.159893	1.920744	-3.064377	0.955213	-2.717303	5.743174	-0.960337	-0.539718	0.337212	-1.428199	-2.410057	1.960441	2.566509	1.393071	-1.343793	-1.343933	0.379266	-0.791199	-1.589222	
-0.824788	0.027354	-1.096538	0.348221	-0.023627	-0.601085	0.621099	0.184140	-0.467443	-0.687047	0.129867	-0.252354	0.194312	1.205436	-0.044229	-0.124102	0.475874	-0.318302	-0.205711	-0.278767	0.608560	0.046937	0.968892	1.077315	0.168799	-0.753925	1.213815	0.107861	0.103429	-0.195966	-0.963110	-0.705207	-0.179699	0.674770	0.297016	-0.234999	-0.496799	
-0.073488	0.736792	-0.958251	-0.899198	0.580658	-0.068591	-0.718417	-0.102095	0.478507	-0.428565	-0.357213	-0.251432	-0.326692	1.296812	0.043915	0.129921	-0.281702	0.417861	0.032646	-0.021327	0.754420	0.125643	-0.222448	0.660974	-0.234163	-0.011822	1.416121	-0.393004	-0.509752	0.393498	0.088599	-1.343717	0.200502	-0.957297	-0.256318	0.261033	0.797589	
-1.165495	0.137703	0.241040	0.666853	-0.201470	-0.079090	-0.076909	-0.239960	0.103299	-0.123546	-0.652609	0.804917	0.156988	-0.016663	0.121070	0.036921	0.144196	-0.278225	0.083769	-0.146725	0.417460	0.148057	-0.151900	-0.650320	0.324102	-0.452516	0.099952	0.398005	0.480539	-0.116058	0.418797	0.100812	-0.044933	-0.416157	-0.205773	0.196787	-0.062918	
-0.386308	-0.006886	-0.429582	-0.073914	0.035662	0.305808	0.871528	-0.030040	0.436754	-0.262758	0.418099	-1.401246	0.219007	0.120897	0.234841	0.024835	-0.463038	0.391750	-0.153423	-0.172948	-0.188411	0.000417	-0.549902	0.973275	-0.785701	1.087075	0.271664	0.191379	-0.192541	0.361601	-0.983764	-0.212376	-0.069171	0.006790	-0.106400	0.467422	0.049607	
-1.251159	-0.199929	-0.605381	1.336826	0.060383	0.495108	-1.173022	-0.755386	0.527197	-1.559885	0.074319	-1.883811	-0.447636	0.354355	0.101524	0.148026	0.884827	1.091545	0.169621	-0.112413	1.005937	-0.079598	0.628359	-0.306038	0.842428	1.046203	0.287899	0.606311	-0.515426	-0.002029	-0.267947	0.316674	-0.469842	-0.490686	0.405568	-0.295611	0.032690	
-1.368443	-0.745114	0.032599	0.458254	0.296424	0.051950	0.402523	-0.288273	-0.750157	-0.046802	0.474733	0.092392	-0.338867	0.698835	0.089424	0.057776	-0.169581	0.012488	-0.122349	-0.165594	-0.210577	0.021360	0.799022	0.151605	0.406967	0.155522	-0.451274	0.610210	0.076098	-0.666065	-0.567615	-0.009512	0.303017	0.147322	-0.034652	-0.007469	0.603821	
0.129913	0.747873	1.750891	0.018440	-0.763871	-0.134386	0.241795	1.262555	-0.558451	0.842166	0.214027	-0.176640	0.011862	-1.040046	0.253256	-0.378630	1.537199	1.261351	0.121184	-0.859026	0.070027	0.147508	-2.299373	-0.534899	-0.100571	-0.270756	-1.150059	-0.536758	-0.214325	-0.218595	0.009510	0.250192	0.361379	-0.360197	0.167312	-0.378108	0.576252	
1.063372	0.175114	2.912088	-0.468917	0.612532	0.462286	-3.556630	-1.710344	0.972688	2.761355	-1.270132	-1.258052	-3.774601	1.377549	0.987072	1.896504	0.115802	-3.208748	0.314281	0.802239	-1.057517	-0.876735	0.999484	-5.778303	3.871909	-2.526532	-0.061022	-0.027306	0.793255	3.427326	2.888404	-0.318228	0.008812	0.334150	-0.765910	1.344912	-1.462157	
-0.627400	-2.012047	0.698987	0.808808	-1.042844	-1.060289	0.652375	-0.321212	0.179885	0.114155	-0.592866	0.624859	-0.012338	0.188591	0.072714	0.638882	1.297541	0.075545	-0.209425	-0.579220	-0.147513	-0.460511	-0.499814	0.913582	-0.668644	0.561986	0.179394	1.602477	-0.911669	-0.073517	-1.722641	1.689024	0.310805	0.400295	0.879254	-0.449537	-0.497672	
0.779838	-1.216140	-2.691351	-0.705713	-0.810172	0.265561	0.409443	0.509068	-0.492644	-0.838163	-0.066040	2.044105	-1.000401	0.519937	0.450141	-0.172920	-0.976930	-0.931179	0.378101	-0.862397	0.395379	0.571427	0.891888	-3.225752	0.511816	-0.419051	0.772585	0.187562	0.295502	0.719295	1.507239	1.390062	-0.051071	1.670450	-1.340288	1.318671	0.212144	
-2.011345	1.734929	1.910393	-0.585307	-0.577490	-0.614537	-1.701121	-2.944961	-0.175034	0.335936	-0.715803	-0.267563	2.052423	-0.149460	0.339010	0.593202	0.523403	0.007886	0.128617	0.229265	-0.105134	0.419421	0.454748	1.431952	-1.213369	0.269395	1.388230	-0.818382	-0.079694	0.525498	-1.015713	-1.601187	0.338996	-0.590825	-0.151773	0.916938	1.718457	
-0.396379	0.996967	-0.917182	-1.427168	0.776548	-0.189287	-0.963432	0.200512	-0.664551	0.272860	-0.456022	0.786824	-0.846445	0.814384	-0.234969	0.101182	-0.082185	0.781996	-0.063861	0.126535	-0.175234	-0.413920	-0.786823	-0.974758	0.334947	0.139095	0.918840	0.258526	0.521709	-0.443014	0.702231	0.296552	0.077399	0.232703	-0.090754	0.397395	0.388780	
-0.452846	-0.742059	-1.266217	-0.266580	-0.520416	0.501049	0.187746	-0.609197	-0.220404	-0.756216	0.042306	1.788613	-1.212364	-0.934114	1.006116	-1.372141	0.026342	-1.213990	0.386387	0.052759	-0.245321	-0.282396	1.358970	-0.105477	1.362027	-0.942549	1.581566	-0.207925	-0.339632	1.664524	0.287228	0.715608	-0.256891	0.504345	-0.312232	0.538977	0.254403	
-0.544914	-0.691018	0.398172	0.152694	0.305880	0.744239	-0.691393	0.239408	-0.669018	-0.396676	-1.480947	0.842430	1.656377	-0.871426	-0.906397	1.016589	-0.092790	0.171056	-0.134473	0.281139	0.898514	-0.923407	1.058080	0.078971	-0.690639	0.923352	-0.884129	0.597692	-0.060909	0.171939	-1.165169	-0.429816	0.079525	1.000555	-0.326996	0.155230	0.188274	
0.071209	-0.345909	-0.077660	-0.114666	-0.657612	-0.266006	0.169162	0.388714	0.936842	0.868101	0.007664	-0.635750	1.034383	0.173272	0.056757	0.399647	-0.238290	-0.859197	0.072688	-0.061944	0.577262	0.157818	-0.445457	1.371421	-0.851058	0.666139	-0.309690	-0.450849	-0.318350	-0.036846	-0.513145	-0.943962	-0.189422	-0.485023	0.223757	0.067002	0.558997	
0.707654	-0.618320	-0.698002	0.156118	1.356974	-1.206966	0.792812	0.151776	0.656594	-1.698776	0.978776	0.221563	0.498661	0.333620	0.497758	-0.134053	-1.247047	0.261049	-0.327676	-0.820774	-0.855258	0.002004	-2.148781	1.001742	-1.207382	-0.450626	2.720024	-0.310036	0.738810	-2.499538	-0.811549	0.995302	2.520973	0.122973	0.038359	-0.036346	0.317589	
0.381011	-0.259455	-0.398393	-0.092445	0.038539	0.280934	0.877233	0.238141	-0.206672	-0.355588	0.419936	-0.257381	-0.134432	0.845359	-0.272555	-0.050745	-0.595070	-0.327472	0.044929	-0.192436	-0.245245	-0.022249	-0.376696	0.300393	-0.083197	-0.086781	0.298713	0.077992	0.077535	-0.240433	-0.175643	-0.041341	0.184153	-0.064548	0.031186	0.062527	0.320196	
-1.233399	1.235736	0.064927	0.673989	-0.167755	0.211541	0.877781	-0.982633	1.618399	-0.584122	-0.692076	0.472503	-0.338519	1.097328	-0.094970	-0.113087	0.442285	-0.112180	-0.055881	-0.538196	-0.567576	-0.480838	-0.846442	1.095649	0.519494	0.511381	0.271458	0.061189	0.034359	0.192731	-0.880136	-0.454726	0.163934	0.022674	0.387554	-1.087295	-0.725082	
-0.176879	1.456349	-0.974704	0.487781	1.397367	-1.237742	1.083054	0.120473	0.629054	-0.309500	-0.160809	1.045402	-2.040845	-0.471260	0.197914	-0.562686	-0.466858	0.984459	0.049563	0.570631	-0.682750	-0.102406	-1.927157	0.254590	0.378665	-0.597517	-1.100481	-1.274679	0.281896	0.619173	1.047985	1.540364	-1.124635	0.399036	-0.274903	0.412067	0.529986	
-1.110456	0.658512	-0.004551	0.927807	0.370890	-0.582143	1.920212	-0.607638	0.571059	-0.924716	0.095829	0.238216	-0.768883	-0.277421	0.453100	0.386746	-0.173710	0.135636	0.687950	-0.661110	0.357995	-0.479404	-0.162055	-1.385025	-0.209162	0.800630	0.609552	0.129534	0.027207	1.224192	-1.040672	-1.317792	-0.687583	0.156413	0.591248	-0.585819	0.635410	
0.202627	0.432915	-0.999232	0.186467	-0.493752	0.835097	0.784275	-0.661848	0.297926	-1.319723	1.459607	-1.785365	-0.044934	-0.081817	-0.382534	0.677127	0.338275	0.198329	0.149066	-0.709193	0.385548	0.190932	-0.399348	-0.393928	0.106766	-0.138323	1.182922	0.220125	0.605574	-0.318324	-0.347361	-1.614718	0.969460	-0.409283	0.642355	-0.299394	0.533683	
-3.864873	-0.215601	2.182612	-0.259105	0.847024	2.936082	-1.741392	0.412801	-2.389445	2.623997	-0.449874	-1.245272	2.669097	0.515961	-0.301996	0.798419	0.953289	-1.531813	-0.008187	1.938921	-0.457581	-0.200120	2.943202	-0.155649	-0.793355	-0.441079	1.079739	1.893667	0.027239	-0.523710	0.168539	-2.445510	-1.097060	-2.006936	0.807363	-0.573688	-2.095705	
0.628319	-0.328317	0.272637	-0.439053	0.631700	0.221228	0.775634	-0.426919	-0.439283	-0.018690	-0.233947	0.658397	-0.011401	1.000957	0.256267	-0.446002	-0.099182	-0.246108	-0.058172	-0.229280	-0.107101	-0.044021	-1.195707	0.401067	-0.101927	-0.548734	-0.189670	0.005832	0.499108	0.022695	0.009824	-0.304811	-0.179343	0.308611	-0.317924	0.118922	0.154393	
-0.692406	-2.164990	0.375658	1.209195	2.843149	-1.645569	0.241910	-0.987033	0.313222	-2.425989	-1.071956	0.043872	0.480764	0.852438	0.415778	1.201913	0.711005	2.161168	0.262410	-0.790334	-0.278673	0.280883	-1.275966	1.030963	-0.929243	1.131477	-2.248383	1.081789	-0.081490	-0.258492	-0.562059	-0.721302	-0.343664	0.119786	-0.424583	0.695342	1.449409	
-0.095592	0.302026	0.329020	0.218798	-0.351238	-0.018304	0.678832	-0.006753	-0.030395	0.021571	-0.655307	-0.359831	-0.311483	0.430883	-0.116136	-0.343269	-0.482929	-0.044249	0.100780	0.299043	0.766882	0.155110	-0.713881	0.071891	0.087992	-0.254109	0.012259	0.070863	0.060782	0.063004	0.403372	0.628747	-0.809051	0.501591	0.250439	-0.588027	-0.273335	
-0.249997	-0.190442	-0.517608	0.337611	-0.019145	0.169183	-0.440453	0.237828	-1.427286	-0.494673	0.189875	1.244758	0.332428	0.888228	0.198763	-0.151326	0.478507	1.013426	0.107705	-0.445893	0.499069	0.112649	0.436796	0.120299	0.163555	-1.086433	-0.573602	0.295875	-0.664500	-0.592674	-0.370980	-0.699226	1.603478	-0.279577	-0.460569	0.606742	-0.372392	
1.063486	-0.497896	-0.324557	-0.214573	-0.100832	-0.474064	-0.454591	0.706892	-1.082273	-0.141561	0.032277	-1.063796	0.701118	0.591746	0.076738	-0.376253	0.504533	0.083851	-0.146935	0.021705	-0.290624	-0.091297	0.255788	0.000747	0.361182	-0.191098	0.161298	0.179039	-0.015696	0.161676	-0.055661	0.251744	-0.120470	0.350247	0.181469	-0.166057	0.122696	
2.266961	0.055901	0.262940	-0.943867	-1.107591	-0.806744	-1.693014	0.035888	0.333578	0.317180	-0.199491	-0.943019	0.213800	-0.080775	-0.261547	0.232808	0.444480	-0.226431	0.070253	0.026070	0.623658	-0.400262	-0.246982	-0.141396	0.328603	-0.431598	0.271196	0.447078	-0.100667	0.160546	0.255938	1.464929	-0.525235	0.651158	0.255063	-0.013238	-0.596171	
-0.787103	-0.259889	-0.413044	-0.070661	-0.207488	-0.562031	0.293706	-0.318907	0.412272	1.084541	0.686045	-1.761468	0.192654	0.145127	0.344413	-0.140224	0.040268	-0.109678	-0.150375	0.212160	-0.176254	-0.195965	0.440401	0.206529	0.507034	-0.059842	-0.033591	0.359934	-0.341558	-1.087082	-0.025228	1.216895	0.444438	0.076818	0.037553	0.201652	-0.202053	
-0.067902	-0.241757	0.319451	0.808666	-0.312619	0.196038	0.628091	-0.418419	-0.836047	-0.468515	-0.262197	0.985978	-0.385343	-1.064595	0.338035	-0.015891	0.309786	-0.092812	-0.059086	-0.074056	0.770951	-0.173083	-0.858319	-0.460429	0.604914	0.224760	-0.172686	-0.141903	0.148740	0.278779	0.218565	-0.186015	0.517480	0.044209	-0.195693	0.040597	0.052328	
-0.941614	-0.204521	0.000922	0.643381	-0.229170	1.239532	0.284807	-0.170966	-1.668922	-1.880108	0.498554	-1.098834	0.116381	0.686224	-0.417791	0.439215	-2.065622	0.128977	-0.446330	0.229973	0.481739	0.840528	-0.581103	-0.172961	1.049564	0.962830	0.775190	-0.045171	-0.479829	-0.170746	1.375568	1.121532	0.228947	-0.221902	-0.069246	0.069205	-0.308234	
1.195710	-0.148888	-0.473300	-0.264341	0.012408	0.290395	0.216076	0.301234	-1.537951	-0.286464	0.123735	0.466623	0.794020	0.174478	0.047231	0.061052	-0.232625	0.357686	-0.020381	-0.007791	-0.083745	-0.087704	-0.348995	-0.804847	0.236902	-0.146178	0.124906	0.054432	0.064818	-0.316248	0.318522	-0.093212	-0.049694	-0.187426	0.117929	0.149787	-0.018154	
-0.863847	-0.519413	-0.058144	0.369759	-0.500517	0.002594	-0.348399	-1.062860	1.120590	0.433504	-0.627671	-1.387265	-0.243534	0.804669	-0.231944	0.779930	-0.887672	-0.655443	0.127288	0.690811	-0.749803	0.198727	0.555180	0.393552	-1.067114	0.542155	0.264784	-0.100167	0.462979	0.177490	0.234213	-0.043835	0.157539	1.558470	-0.232924	0.314094	0.392221	
-1.072019	-0.191479	0.454487	-1.104657	0.694884	-0.234263	-0.570780	-1.432100	0.834664	0.079989	-0.276824	-0.373245	-0.259195	0.378367	-0.246303	0.307133	0.037630	-0.624006	0.003689	0.325810	0.393609	0.134292	0.218445	1.159994	0.134641	0.132668	0.558311	0.331191	-0.068018	0.350403	-0.204393	-0.600635	0.184360	-0.179359	0.208821	0.081639	0.432249	
-0.117208	-0.087756	0.168819	-0.139834	-0.617558	0.617265	0.551009	0.113797	0.290991	0.120319	0.079544	-0.305300	-0.485356	0.227270	-0.000250	0.329973	-0.075908	-0.803092	-0.108615	0.425551	0.209129	-0.354311	0.403645	0.756793	-0.437990	-0.167822	-0.893685	-0.527410	0.445180	-0.642955	0.790679	-0.297763	0.751696	-0.485801	-0.455305	0.552397	0.169862	
0.773269	0.001337	-0.162250	-0.076527	-0.043742	0.266127	-0.109248	-0.172306	-0.282003	-0.443647	0.102718	0.195696	0.079927	-0.541469	-0.102477	0.003420	0.164209	-0.081244	0.019324	-0.182038	0.464164	-0.180780	0.117560	-0.558993	-0.572681	0.373687	-0.134630	0.567367	0.176109	-0.133804	0.449300	-0.028892	0.042861	-0.321105	0.188656	-0.079266	0.221375	
1.090881	0.258492	-0.853681	-1.168262	0.306547	-1.397803	-0.256632	0.023337	-0.363370	-0.463238	0.631455	-1.241350	0.614721	-0.161626	-0.696277	0.184988	-0.029230	-0.475585	-0.047607	-0.203195	-0.077868	-0.248620	0.211093	0.978348	-0.381443	0.396701	0.474566	0.143617	0.472737	0.842136	0.544447	1.427850	-0.495326	0.290014	0.535332	-0.507541	-0.358609	
0.606600	-0.495406	1.431209	-0.487867	0.584217	-0.333077	-2.038274	-0.477807	-1.258507	0.585116	1.022876	-0.403299	-0.736378	0.389887	-0.166121	0.748028	0.037549	-0.909022	0.122180	-0.233192	0.086035	0.718829	1.101141	-1.850245	-0.536471	1.312349	0.091914	0.418857	-0.359653	2.212432	1.605135	-2.279462	-0.288806	0.135926	-0.043706	-0.183500	-0.129485	
-0.504942	-0.299819	-0.998835	0.598936	1.145452	0.458832	-0.638554	0.329457	-0.451132	0.606510	-0.234753	-0.400512	0.510384	-1.465980	0.045114	-1.080910	-0.511103	0.850710	-0.463070	-0.399351	0.547619	0.828550	-1.007095	0.539109	-0.060391	0.224546	-0.622195	0.805101	-0.558418	-0.369111	1.170385	-0.628328	0.884442	1.483395	0.179352	-0.239074	-0.274319	
1.519822	0.623683	1.840466	-2.455904	1.467415	1.252040	-2.725567	-0.670118	-0.860650	0.924227	1.609917	0.373942	1.262865	-1.731330	-0.712556	-0.570148	0.613352	-0.977588	0.269860	0.481509	0.059372	1.099658	-1.274405	1.386260	-0.764840	1.237760	-0.265943	-0.756876	0.500659	-3.056508	0.290658	0.757326	-0.777112	-0.410400	0.545395	-0.573352	0.467111	
0.995372	-0.042400	-0.487998	0.196288	0.264187	-0.936700	0.534840	-0.083165	0.072893	0.193612	-0.016826	-0.225300	0.149955	0.321157	-0.317544	-0.366169	0.154993	0.286774	0.027913	0.363967	-0.147080	0.360474	-0.503251	0.589213	-0.286474	0.208367	-0.409554	-0.080547	-0.427028	-0.043024	-0.911554	0.156179	0.698470	-0.187672	-0.110198	0.260527	-0.252696	
0.102557	-0.133969	0.519196	-0.113993	0.615209	0.303120	-0.843002	0.189465	-0.512627	0.451145	-0.010264	-0.004297	-0.515888	0.579506	0.215119	0.037484	-1.122146	0.578822	0.058147	-0.050345	-0.027681	-0.088883	-0.738418	0.067140	0.159372	0.509394	-0.193855	0.318741	-0.129726	0.382374	-0.009749	-0.193552	-0.492390	0.467045	-0.284474	0.307935	-0.396514	
1.175940	0.332066	-0.796396	0.661323	-0.856505	0.038501	0.105345	0.149793	-0.083670	0.479578	-0.111043	0.259832	0.550167	-0.497327	-0.469223	-0.425310	0.613000	-0.304076	0.035867	-0.475223	-0.140105	0.143422	-0.369717	1.131714	0.120383	-0.511455	-0.187410	-0.130130	0.185018	0.484377	-0.239898	-0.831500	0.127562	-0.135209	0.523709	-0.434682	-0.118720	
-0.471426	-0.131556	0.350647	0.094637	0.062738	0.294176	0.035878	0.498077	0.130893	0.586736	-0.258906	0.560627	-0.378725	0.784944	0.158436	-0.145140	-0.312929	-0.709278	0.021781	-0.162061	0.256118	-0.073530	0.233694	-0.004229	0.408144	0.217922	-0.347768	-0.085078	-0.228167	-0.346263	-0.430160	-0.341800	-0.210005	0.245551	-0.353754	0.141960	-0.092184	
-1.009644	-0.094157	-0.093522	-0.665563	1.426731	0.279865	-0.439756	-0.396651	0.029727	0.087175	-0.338031	-0.233483	0.049081	1.676655	-0.180026	-0.753675	-0.314419	-0.298144	-0.016172	0.380333	0.797102	0.686468	0.683117	-0.073097	-0.098102	-0.011986	-0.015319	0.287332	-0.294302	0.053490	-0.360468	-0.627208	-0.206233	-0.160789	-0.128396	0.447697	-0.075629	
1.616390	0.305522	0.451016	-0.273789	-0.970970	0.194481	-0.721085	-0.212336	-0.551981	-0.301037	0.333305	-0.576067	-0.152329	-0.798407	0.163808	0.250819	0.491381	-0.378187	-0.038641	0.156081	-0.332894	0.203455	-0.016453	-0.712842	-0.181429	0.383448	-0.113398	-0.230544	0.153501	0.357160	0.625286	0.738343	-0.148409	-0.236397	0.258059	0.160150	0.104991	
0.888144	1.342054	1.267292	0.032261	0.031467	-0.321868	-1.096811	-0.528120	-1.397429	-0.146912	0.198500	-0.369191	0.330565	-0.446815	0.390060	0.327737	-0.141616	0.450721	0.071769	-0.007661	-0.225936	-0.333712	-0.356428	-0.324013	-0.555865	-0.132978	0.242175	-0.150822	0.576968	0.539018	0.858881	0.119195	-0.043583	-1.311389	-0.510663	0.356578	0.378428	
0.108992	-0.400177	0.619997	-0.976780	0.663978	-0.063077	0.818362	0.052733	-0.676765	-0.071799	-0.472678	-0.376385	-0.722857	0.365597	-0.116243	-0.092273	-0.517446	-1.219175	-0.001676	-0.316276	0.643082	-0.427389	0.886935	0.025765	-0.839616	1.092699	0.571579	1.416159	-0.867924	0.079274	0.267341	0.359204	-0.078744	0.292209	-0.194310	0.267352	-0.099669	
-1.061296	-0.952518	-0.305443	0.530925	0.513534	0.200528	0.104801	0.308616	0.172942	0.992557	0.025283	0.937852	-0.927671	-1.033039	0.221643	0.524951	-0.669766	-0.567106	0.129620	0.064938	-0.126896	-0.076750	0.745413	-0.749970	0.378362	-0.596031	0.585362	0.393389	-0.815738	0.400686	-0.145766	0.975444	-0.094935	0.327513	-0.410880	0.428597	-0.429149	
-0.434588	0.214058	0.396777	-0.525504	-0.167782	-0.033955	-0.212941	0.243214	-0.414406	1.065354	0.051168	0.477403	0.239442	-0.796753	-0.105161	-0.511921	-0.350547	-0.109907	-0.050165	0.076611	0.143118	0.330141	0.545937	-0.927308	-0.368772	0.871902	0.471841	-0.140223	0.212885	0.412609	-0.143312	-0.056490	0.219453	-0.532944	0.083849	-0.173233	0.000147	
-1.531369	-1.029336	0.477118	-0.039650	-0.109872	0.141131	0.265370	-0.234066	-1.002693	0.055289	1.031399	1.674396	-0.334622	-0.340998	-0.642490	0.296411	-0.572054	0.417260	-0.269954	-0.525671	0.233165	0.689502	0.275607	-0.216749	0.715943	0.025292	0.201009	0.158143	-0.748308	-0.012755	-0.395609	0.230504	0.923609	-0.352601	0.227394	-0.040156	0.360413	
0.402377	0.371080	0.229045	0.070656	0.182177	0.202866	0.454023	0.642524	-0.301272	-0.503208	0.023265	0.758022	-0.306151	0.354765	0.253374	-0.835990	0.798392	-0.399368	0.020476	0.277596	0.328673	-0.311153	-0.368581	0.205536	-0.644089	-0.356022	-0.645077	0.582483	0.147975	-0.862061	0.539108	0.004128	-0.937274	0.011542	0.079822	-0.230975	-0.238683	
1.903424	0.029898	1.401568	-0.596843	0.627027	-0.719431	1.727251	0.402076	-1.086051	-1.302475	0.864735	2.255258	-0.010512	0.477044	0.006879	-0.391116	1.039928	1.021347	0.010058	-0.048751	-0.001839	-0.272325	-0.775338	1.710542	0.285097	0.235984	-1.878564	0.846771	-1.495636	-1.999437	-3.515696	-0.595074	0.111559	-0.414578	0.175714	-0.072753	0.044259	
-1.250044	-0.175691	-1.862113	-0.219144	-0.308696	-0.349170	-1.233750	-0.354461	1.014652	1.325501	0.375734	-0.965277	-0.137794	1.326125	0.123162	0.793023	-0.261407	-1.794696	-0.126954	-0.062701	-0.018736	0.022057	0.281671	1.018181	-0.832619	0.262025	0.073579	-0.150566	-0.582288	0.950207	3.164855	0.740318	-0.128358	0.401761	0.593560	-1.189981	-0.461964	
-0.911513	0.769390	-0.569018	-0.772263	0.114700	-0.790368	0.474970	1.326809	0.515008	0.316376	-0.039991	-0.025070	0.037929	0.418714	-0.726807	0.077661	0.806354	0.748262	0.176443	0.168415	-0.012145	-0.262486	0.136177	-0.952346	0.830524	-0.138107	-1.099009	-0.499985	-0.138917	0.260156	-0.121923	0.297964	0.014755	-0.470602	-0.005442	0.109130	-0.063746	
-0.503310	0.438115	0.266484	-0.011323	-0.356555	-0.246923	-0.258990	-0.080332	0.078785	-0.190031	0.092266	-0.655909	-0.059353	0.300946	0.497628	-0.462429	-0.546562	0.256957	-0.045612	0.059962	0.966178	0.047993	-0.235452	-0.577398	0.038116	0.375744	-0.410197	-0.453785	0.121129	0.029897	1.089017	0.530221	-0.412440	-0.250388	0.274655	0.175419	0.117475	
-0.032875	0.348994	-0.191597	0.198362	-0.157934	0.143456	-0.435726	-0.287152	-0.236695	0.787224	0.335498	-0.135636	-0.224121	-0.654161	-0.280421	0.115634	0.505818	0.221811	-0.021100	-0.080630	0.011379	-0.169528	-0.348582	1.299525	0.120729	0.368333	-0.605289	0.191953	0.083663	0.199431	-0.397739	-1.156200	0.274381	0.000503	-0.005432	0.059457	0.154667	
1.282723	0.252502	0.124554	-0.311094	0.450150	-0.293443	-0.561604	-0.139445	0.669228	-0.022201	0.215548	-1.015512	-0.314287	0.055708	0.209838	-0.026184	0.199670	-0.704550	-0.014907	0.094170	0.034039	0.021709	0.098411	-0.408554	0.144697	0.083518	0.012626	0.022624	0.091183	0.230079	0.178227	-0.003261	-0.294482	-0.255469	0.319221	-0.365808	-0.059625	
-0.191985	-0.282994	0.473650	0.341763	0.274874	0.204568	-0.245227	0.440327	-0.242451	0.213398	-0.542295	0.401596	0.116394	0.479923	0.020524	0.519559	-0.275946	-0.087293	0.067525	0.156819	-0.710460	0.361386	-0.376643	-0.137909	-0.171262	0.587048	-1.220479	-0.393593	-0.050434	-0.091588	0.361136	-0.290812	-0.431371	0.598005	0.286739	-0.160237	-0.002256	
0.397050	0.039391	0.081095	0.312783	-0.108490	0.175850	0.147768	0.551661	-1.149495	0.659992	-0.107654	0.527088	-0.000227	-0.871978	-0.219672	0.118560	0.622846	-0.249402	0.020220	0.063913	-0.050144	-0.077843	0.239711	0.137512	0.264214	-0.300115	0.315316	-0.525506	-0.036748	-0.057702	-0.592644	-0.354013	0.139712	0.134294	-0.036551	-0.096668	-0.114123	
1.180498	0.276365	0.313350	-1.107746	0.236824	-0.388254	-0.740461	-0.505615	0.093700	0.354327	-0.446960	0.496059	0.419278	-0.387014	0.074426	-0.253986	0.952684	0.323735	0.061245	0.393964	0.716510	0.002660	0.100439	1.175960	-0.563693	-1.523302	0.206530	-0.002079	-0.139682	-1.328465	-1.070186	0.976818	-0.061092	0.126430	-0.036308	-0.088135	0.161178	
-0.424753	0.558653	0.739162	-1.598493	-0.666590	0.759991	-0.760942	-0.944865	0.534099	-0.031130	0.494718	0.579465	0.783745	0.134004	0.591680	0.272123	0.951561	-0.187987	0.075010	0.684321	0.628015	-0.384149	0.561457	-1.983288	-1.209013	1.121766	0.976091	-0.523236	-0.153233	1.035068	0.404793	-2.339979	-0.290577	-1.075288	0.361510	-0.163957	0.490248	
-0.217256	0.263625	0.316142	-2.871932	1.436698	0.728929	-1.663644	-1.939618	-1.488966	0.246422	1.572061	0.984231	-0.242788	-0.123745	0.002080	0.604048	0.165933	-0.224235	-0.323609	1.131717	1.326403	0.891100	1.666636	-0.018648	0.955465	-1.035749	-1.024913	-1.183214	-0.091590	0.723908	-0.632321	-0.613923	-0.755596	0.131983	0.404402	0.022790	0.877176	
2.106754	0.289829	1.353346	1.305948	-0.230812	0.389906	-0.542175	0.541622	-0.824440	2.295844	-2.800661	1.236984	-1.525462	-1.322419	-0.046552	-0.523124	-0.211356	-0.238782	0.101038	-0.135382	-0.516767	0.441499	-0.801179	0.600141	0.765883	-1.076045	-1.178947	-1.126546	-0.667667	-1.491599	-0.510124	1.935465	1.045189	1.355348	-0.174500	-0.380399	0.560144	
0.243881	0.401632	-0.338354	0.081749	-0.339132	0.284071	-0.460128	-0.075054	0.302308	-0.524795	-0.759499	0.242091	0.856072	0.148657	-1.231383	0.746819	-0.078172	-0.596845	0.073598	-0.321086	-0.071974	0.174828	0.624577	-0.677631	0.796967	0.347490	-0.519031	-0.546296	-0.147224	0.297916	0.134167	0.174328	0.440132	-0.393095	0.374450	0.032503	0.301458	
0.520536	0.847092	-0.806129	-0.875546	0.953341	0.148727	0.132294	0.304811	0.096179	0.623129	-0.516163	0.974361	0.734173	0.158468	-0.140472	0.936428	0.831205	-1.084656	0.267601	-0.054783	-0.031894	-0.668666	-0.973413	-0.421039	-0.308319	0.149061	-0.799371	-1.664373	-0.321164	0.829459	0.017494	-0.615176	-0.305476	0.806087	-0.132040	0.465845	-0.077611	
-0.772943	1.083389	-0.196302	-0.126434	-1.321325	0.843438	0.723095	-0.838651	-0.337353	0.985056	1.355464	-0.268461	0.106542	-0.415829	-0.162180	-0.428921	0.060764	-0.389093	0.201306	0.021981	0.234142	0.043791	0.336545	-0.480467	0.923217	-0.083621	-0.317699	-0.849278	0.067082	0.339462	-0.287293	-0.053101	0.174791	-0.790801	0.202741	0.369732	0.047213	
0.160207	-1.169056	0.271431	-0.385037	0.209725	-1.360554	0.908937	0.361873	-0.308962	-0.933890	0.075970	0.124564	-0.841428	0.422909	-0.331573	0.306405	0.465415	1.154115	-0.115214	0.267156	-0.041860	-0.183746	-0.402395	-0.609632	0.177538	0.258732	0.426977	-0.005931	-0.051485	0.607201	0.392989	0.194943	-0.255418	-0.246327	-0.302690	0.139860	0.618250	
-0.799355	-0.292826	-0.309027	-0.358850	-0.114393	-0.340609	0.219490	0.000044	-0.317291	0.801302	0.212617	-0.102174	-0.054747	0.505696	0.199909	0.017168	1.480813	-0.698499	0.009913	-0.162816	-1.072951	-0.089596	-0.408228	0.182200	0.433378	0.595207	0.284935	-0.265980	0.189388	-0.443802	0.963109	-0.047249	-0.336201	0.175403	0.343796	-0.629439	0.229665	
1.429477	0.379552	1.871068	-0.565540	0.085364	0.014677	-0.666512	0.716229	-0.817138	-0.048751	0.068459	0.326360	0.049929	0.052690	-0.044177	-0.230811	-0.609022	0.097658	-0.002629	-0.330812	0.532377	0.404123	-0.485042	0.027257	-0.247754	-0.406783	-0.061279	-0.327427	-0.252830	-0.295230	0.755015	-0.090052	-0.535391	-0.412928	-0.042619	-0.294239	-0.043272	
0.149062	0.029625	-0.980361	0.159614	-0.155938	0.270413	0.082401	-0.145627	0.283743	0.544181	0.131360	-1.226798	-0.209085	0.041695	-0.332846	0.198081	0.630078	0.400793	0.164557	-0.055316	-0.487986	0.036970	0.078111	0.362523	0.170324	0.447304	-0.298747	-0.317172	0.470289	0.024069	-1.010729	-0.085213	0.278124	0.080062	0.020725	0.098199	0.153514	
-0.265447	-0.091963	0.142668	0.886973	-0.529991	-0.641028	0.198327	-0.558985	-0.185537	-0.645934	0.202089	-0.149117	-0.695401	0.857757	0.165745	-0.102528	-0.700626	0.200269	-0.363559	0.410589	-0.522308	-0.155902	-0.701222	0.588519	0.247282	-0.302150	0.462336	0.531726	-0.203543	-0.473052	0.904113	0.750368	0.264073	0.154416	0.354379	-0.327877	0.294539	
0.092455	0.397463	0.018502	-0.454336	-0.188040	0.119058	0.165110	0.684342	-0.443580	0.777362	-0.040112	0.954661	0.205069	-0.159352	0.440132	-0.121557	0.786691	-0.556619	-0.217593	0.038540	-0.033313	-0.115044	-0.243531	0.379770	-0.521636	-0.186945	-0.470303	0.311486	-0.322272	-0.062580	-0.382313	-0.536702	-0.522726	0.216484	-0.305625	0.267150	0.029905	
-3.888973	-1.800867	0.497103	-0.405757	1.019777	0.507957	0.962797	0.122480	0.963861	-2.332164	-0.125146	0.107299	-1.379701	0.112323	-0.822293	-0.148218	-0.580979	0.734859	-0.194324	0.255982	-0.112329	0.706518	0.202796	2.056002	0.448782	-0.949444	0.674562	0.501246	0.134329	-0.152000	1.014478	0.465141	0.056050	0.512883	1.150224	0.093659	-0.408916	
2.258353	0.299505	-0.671578	0.543067	0.437464	-0.458151	-0.720148	-0.006262	-0.637348	-0.643497	0.007999	-1.102882	1.157781	-0.271355	0.377516	0.227801	-0.621549	0.153605	0.307520	-0.146764	1.154923	-0.381563	0.524390	-1.457854	0.171719	0.785154	-0.240256	-0.039520	-0.187652	-0.863070	-0.349856	0.065829	-0.418379	1.112549	0.293195	0.057367	-0.718051	
-0.028605	0.021799	0.325481	-0.690172	-0.009427	0.455763	0.270768	-0.377621	-0.243749	-0.395314	0.132291	0.667591	0.253504	0.638941	-0.012006	-0.438288	-0.482939	-0.043323	-0.035728	0.353167	-0.211711	0.069309	-0.984952	0.577833	-0.114540	-0.170892	-0.136029	0.072046	0.150458	-0.063292	-0.250359	-0.222086	0.046702	0.382274	-0.031400	0.210239	0.314264	
-0.474148	-0.554076	-0.544320	-0.043472	-0.162684	0.756348	-0.110248	0.260751	-0.142145	-0.229675	-0.362417	0.288355	-0.029775	0.653328	-0.055700	0.091228	-0.419685	-0.038981	-0.054929	0.062085	-0.710477	-0.184311	-0.293944	0.182843	-0.178464	-0.134719	-0.130757	0.010343	0.223502	0.535704	0.327439	0.242097	0.172182	0.516359	-0.158076	0.004426	0.686014	
1.842100	-0.096516	-0.600660	-0.294205	0.041330	0.551727	-0.531270	-0.287272	0.129275	1.426151	-0.444164	0.323682	-0.765133	-0.840868	-0.234994	-0.076227	-0.981848	1.008479	0.031322	-0.132411	-0.886009	-0.392226	-0.465191	0.441575	0.033595	-0.243943	0.212723	-0.039222	0.585646	0.360770	-0.921074	0.115432	-0.092279	0.676398	0.150355	-0.262437	0.657389	
0.544979	-0.091412	0.122190	0.303761	0.218448	-0.713206	0.770099	0.186562	0.378045	-0.311742	-0.585744	0.329492	0.723282	-0.380290	-0.000992	-0.190652	0.021968	-0.699029	-0.036326	0.353225	0.576758	-0.297011	0.059297	0.595611	-0.528057	-0.301854	0.062143	0.147359	-0.517016	-0.441143	-0.321919	0.125828	0.226400	-0.519390	0.213413	-0.361847	0.338771	
0.518744	-0.422666	1.007469	-1.161324	0.428435	-0.220230	-0.475881	-0.105918	0.042839	0.369312	1.957253	-1.131157	0.740034	-1.212008	0.177000	0.359037	-0.016899	0.477922	-0.278540	-0.328751	-0.317259	-0.441163	0.749446	0.971543	-0.219752	0.115543	-0.299853	0.217275	-0.012964	-0.189837	-0.560789	-0.324143	0.738009	-0.659322	0.148854	-0.556116	-0.084141	
0.956266	-0.402494	0.709478	0.212815	-0.162716	0.140404	-0.861002	0.078538	-0.464156	-0.508687	0.338460	-0.544306	0.381917	0.466223	-0.263041	0.349476	0.307478	-0.268123	-0.063559	0.004790	-0.148112	0.200907	0.771805	-0.337784	-0.471082	0.060402	0.265279	0.095421	-0.300420	0.296693	-0.889207	-0.604328	0.025687	0.153420	-0.014999	0.100045	0.388511	
0.237062	0.523303	0.209985	-0.128045	-0.188158	0.011487	0.318577	0.155661	-0.788578	0.654896	0.183332	0.635005	0.173290	0.419963	0.190545	0.269292	-0.647943	0.405062	-0.117601	0.545345	-0.321405	-0.102608	0.509269	-0.619718	0.013543	-0.535411	-0.640812	-0.484618	-0.580849	0.433873	0.065917	-0.189802	0.060285	0.031171	-0.252616	-0.070935	-0.377763	
-0.540206	-0.102463	0.508808	-0.119742	1.507329	0.520309	0.412063	0.795360	-0.536981	1.001930	-0.486968	0.646236	0.170798	0.404369	-1.355284	0.111803	0.344045	-0.407369	-0.192139	-0.160030	-0.794064	-0.390664	0.290019	-0.666140	-0.049298	0.063566	-0.734251	0.838227	-0.160158	-0.422779	-0.510166	-0.111420	0.301094	0.222928	-0.460276	-0.018757	0.080271	
-1.197041	-0.523031	-0.022007	-0.346462	-0.697631	0.497581	-0.684753	-0.075002	1.134579	1.269803	0.150635	1.143580	0.602201	-0.616448	0.395150	0.227360	0.532536	-0.195907	0.079720	1.073560	-0.431924	-0.061568	1.632728	1.540193	0.044812	0.056181	-1.712766	-1.235897	1.576621	1.507836	-3.409510	-1.225711	-0.903522	0.053308	-0.155282	0.494551	-0.518473	
-0.185408	-0.611949	0.387666	0.134328	-0.109590	-0.207128	0.208348	-0.493400	0.642682	0.503167	0.458954	-0.543755	0.731469	-0.542159	-0.431843	0.366637	-0.199671	-0.081157	-0.028007	0.134097	0.133704	-0.023990	0.564231	-0.085068	-0.200927	0.049439	-0.783418	0.040832	0.151810	0.452089	-0.107331	-0.348448	-0.155061	0.079275	-0.093254	0.188036	0.004800	
-0.103348	0.094831	0.032758	0.357692	0.223580	0.922694	-0.327501	0.399333	-0.358048	-0.006919	-0.617539	0.852176	0.400556	-1.193072	-0.118959	0.028112	-0.430674	0.395414	-0.088698	-0.750524	0.116276	0.057807	-0.272933	0.304790	-0.074419	0.095821	0.095443	-0.226875	0.186815	-0.204188	0.133721	0.381769	-0.218207	-0.729813	-0.213094	0.118305	0.736916	
-0.680288	0.207378	0.512128	-0.095387	-0.103742	-0.776536	-0.058359	0.344716	0.526784	0.220971	0.379577	-0.808363	0.159291	0.181243	-0.159095	0.386744	0.477163	-0.116239	0.137112	0.194074	0.102055	-0.320726	0.339201	-0.260011	0.021695	-0.320010	-0.039976	-0.835356	0.746742	0.004936	-0.038452	-0.682564	0.212253	-0.501236	0.247212	-0.049809	0.444875	
